{"trunk_0_weight": [[0.16405728459358215, 0.07664027065038681, 0.2558058798313141, -0.027873869985342026, 0.16954822838306427, -0.0645962581038475, 0.18969041109085083, 0.11420107632875443, 0.15611614286899567, -0.029503094032406807, 0.0066029843874275684, 0.161915585398674, 0.029554786160588264, 0.07027661800384521, -0.011480997316539288, 0.0011672854889184237, 0.1413072943687439, 0.15539401769638062, 0.01615639217197895, 0.05641244351863861, -0.01140816044062376, 0.08413317799568176, 0.007045848295092583, 0.2984284460544586, 0.05994018539786339, -0.04888996109366417, 0.18186624348163605, 0.0236160047352314, 0.07117076218128204, 0.031027039512991905, 0.13058070838451385, 0.19301176071166992, 0.1075470820069313, 0.12030108273029327, -0.009909169748425484, 0.22872088849544525, 0.20928999781608582, 0.1440020501613617, -0.008785370737314224, 0.17941875755786896, -0.03389044478535652, -0.017309065908193588, 0.19719983637332916, 0.1574452519416809, 0.1961708515882492, -0.03673044964671135, 0.12519428133964539, 0.040107306092977524, 0.12978851795196533, 0.08918798714876175, -0.01830282062292099, 0.17238746583461761], [0.14216460287570953, -0.09723971784114838, 0.34429410099983215, -0.11990009248256683, 0.05559253692626953, 0.10337085276842117, 0.13268832862377167, 0.00799445528537035, 0.1608991175889969, 0.16685470938682556, 0.07879770547151566, 0.08740813285112381, 0.0520869679749012, -0.0496026910841465, -0.034611478447914124, 0.03127371147274971, -0.023415418341755867, 0.08258271962404251, 0.13393132388591766, 0.030366703867912292, -0.1073998510837555, 0.025770004838705063, 0.0970989465713501, 0.07317867875099182, -0.011981887742877007, 0.13112960755825043, 0.18412047624588013, 0.03255915269255638, 0.0904969722032547, -0.06936899572610855, 0.020860010758042336, -0.05725910887122154, 0.06559339910745621, -0.03012939915060997, 0.020327195525169373, 0.24164241552352905, 0.2083035111427307, 0.020625321194529533, 0.1994245946407318, 0.0011687681544572115, -0.03894169628620148, 0.02121148630976677, 0.11472081393003464, 0.1585167497396469, 0.1302603781223297, 0.10606934130191803, 0.15953539311885834, -0.017067817971110344, 0.04280812293291092, 0.07865636050701141, 0.006369702983647585, 0.05708136409521103], [-0.02586035244166851, 0.05699736252427101, 0.15831680595874786, -0.07921162992715836, 0.12117177248001099, 0.10187821835279465, 0.17116983234882355, -0.08165424317121506, 0.15560631453990936, 0.13130921125411987, -0.07732627540826797, 0.054705943912267685, 0.2058800309896469, -0.05450408533215523, 0.005510987713932991, 0.18952380120754242, -0.0368015356361866, 0.15640141069889069, -0.024026179686188698, 0.11886976659297943, 0.12240172922611237, 0.018482331186532974, 0.03028441220521927, 0.051903367042541504, 0.15027715265750885, 0.005293210037052631, -0.04356536641716957, 0.10202884674072266, 0.15165603160858154, 0.13402748107910156, 0.03983500599861145, -0.011992447078227997, 0.13373951613903046, -0.05945682153105736, -0.09369365125894547, 0.07428830116987228, 0.11997973173856735, 0.06251748651266098, 0.047960978001356125, 0.017124731093645096, 0.01934192143380642, 0.06911666691303253, 0.03894241899251938, 0.11766431480646133, -0.02480326220393181, 0.0290202833712101, 0.08877310901880264, 0.10546260327100754, -0.02223721519112587, -0.011265655048191547, -0.02454700693488121, -0.09075134992599487], [0.13337768614292145, 0.10615882277488708, 0.1791049987077713, -0.03431989625096321, 0.09623263031244278, 0.1289009153842926, 0.18172544240951538, -0.12303441017866135, 0.010598447173833847, -0.031578052788972855, -0.1915108859539032, 0.214049831032753, 0.05948515981435776, -0.015090709552168846, -0.06874938309192657, 0.11489786207675934, 0.05823611840605736, -0.06354149430990219, 0.12265434116125107, -0.09426310658454895, -0.11929153650999069, 0.014122269116342068, -0.08396989852190018, 0.011381423100829124, 0.1587001383304596, 0.124210886657238, 0.09809766709804535, -0.07427050173282623, -0.06281778216362, -0.038328152149915695, 0.03425095975399017, -0.017209187150001526, -0.1455533355474472, -0.08508549630641937, -0.15646418929100037, -0.034800268709659576, 0.041852518916130066, -0.012584390118718147, -0.11617608368396759, 0.07666459679603577, 0.04745493456721306, 0.09325103461742401, -0.06672307103872299, 0.0384439155459404, -0.07696262747049332, -0.12402983009815216, 0.0880313441157341, 0.06190071254968643, 0.024561570957303047, 0.030028462409973145, 0.07162056863307953, -0.013119680806994438], [-0.07463900744915009, 0.08408837020397186, -0.13506698608398438, 0.2111949622631073, 0.04186443239450455, 0.04150518402457237, 0.13731849193572998, -2.1375097276177257e-05, 0.02934725023806095, -0.0070229084230959415, -0.0177818164229393, -0.17463356256484985, -0.049021318554878235, -0.011778738349676132, -0.041551727801561356, 0.08433515578508377, 0.12891975045204163, 0.04632893204689026, -0.06563428044319153, 0.055057428777217865, -0.005359753035008907, -0.0049875350669026375, 0.1883264034986496, -0.185535728931427, 0.06128848344087601, 0.1039215698838234, -0.064625583589077, 0.0022771654184907675, 0.057483971118927, 0.049287568777799606, 0.09098602831363678, 0.08617653697729111, 0.03463812172412872, -0.07598202675580978, 0.06500597298145294, -0.11015892773866653, 0.04847530648112297, 0.02475755847990513, 0.09897808730602264, -0.06559469550848007, -0.08087025582790375, -0.0013734354870393872, -0.06578171253204346, -0.07674843817949295, -0.04684482514858246, 0.1339663565158844, 0.00043355749221518636, 0.01250970084220171, 0.06673281639814377, 0.16892856359481812, 0.08920979499816895, 0.11953490972518921], [0.14189936220645905, 0.0157916322350502, -0.23456622660160065, 0.1495457887649536, -0.06658714264631271, 0.05641954019665718, 0.08046847581863403, 0.0338255912065506, 0.07510315626859665, 0.057237159460783005, 0.15662553906440735, -0.30313897132873535, 0.09315238147974014, 0.22501473128795624, -0.09759483486413956, 0.13150200247764587, -0.0003139845503028482, -0.09199092537164688, 0.11059916764497757, -0.04979769513010979, -0.06551829725503922, -0.12605418264865875, 0.10300707072019577, -0.1933795064687729, 0.11157502979040146, 0.11935486644506454, -0.07278139144182205, -0.02167782559990883, -0.04318878427147865, 0.0836789533495903, 0.09390436857938766, -0.03686750680208206, -0.04536684975028038, -0.036353882402181625, 0.08086387813091278, -0.11461242288351059, -0.019846418872475624, -0.06681479513645172, 0.08251896500587463, -0.03787937015295029, 0.02445310354232788, -0.11079365015029907, 0.08831620216369629, -0.11824671179056168, -0.10510759800672531, 0.06681307405233383, 0.09790206700563431, 0.09055578708648682, -0.04457138851284981, -0.12650439143180847, -0.12163153290748596, 0.09920059144496918], [-0.05982851982116699, 0.08054956793785095, 0.3066719174385071, -0.042485449463129044, -0.09509974718093872, 0.08546764403581619, -0.014725957065820694, -0.017906269058585167, 0.07537417113780975, 0.0005623660981655121, -0.004416277632117271, 0.0662502571940422, 0.019942041486501694, 0.025495674461126328, 0.06395140290260315, 0.19209803640842438, 0.15659435093402863, 0.09173857420682907, 0.11768356710672379, 0.15222202241420746, -0.004039413761347532, 0.10785815864801407, 0.07252350449562073, 0.06749873608350754, 0.04665864259004593, -0.06826253235340118, 0.16031263768672943, -0.05689142644405365, 0.11070527881383896, 0.06117219105362892, -0.055867187678813934, -0.006792394910007715, 0.07499325275421143, 0.03733605891466141, -0.06205466017127037, 0.159620001912117, 0.02598646841943264, 0.011771629564464092, -0.06642235815525055, 0.19103944301605225, -0.0345337875187397, -0.07124786078929901, 0.15818975865840912, 0.06076229736208916, -0.01538846269249916, 0.09962215274572372, 0.04638981819152832, 0.08530249446630478, 0.009180215187370777, -0.024252641946077347, 0.1298660784959793, 0.1508089303970337], [0.14805787801742554, -0.029642121866345406, 0.2857678234577179, -0.10896766185760498, 0.11424952745437622, 0.12835848331451416, -0.07249405235052109, 0.14594225585460663, 0.10361799597740173, 0.07005443423986435, 0.019798286259174347, 0.1982644647359848, 0.03381263464689255, 0.06538718193769455, -0.027699517086148262, 0.03791496902704239, -0.05444764345884323, -0.06095793470740318, 0.1536683440208435, -0.029456067830324173, 0.11740100383758545, -0.11236420273780823, 0.04300985485315323, 0.2024085968732834, 0.18994297087192535, -0.06850199401378632, 0.13955338299274445, -0.021354082971811295, -0.02750987373292446, -0.045989129692316055, -0.05349713936448097, -0.018726607784628868, 0.167246475815773, 0.06960048526525497, 0.05580984055995941, 0.025769514963030815, 0.13548411428928375, 0.1365727037191391, -0.06948048621416092, 0.0780438482761383, -0.09330061823129654, -0.04209757596254349, -0.04574418067932129, 0.06324465572834015, 0.06826275587081909, 0.08660368621349335, -0.07945070415735245, 0.06122441962361336, -0.040443889796733856, 0.03306661173701286, 0.05217702314257622, 0.12279951572418213], [0.15299977362155914, 0.13839595019817352, 0.17846353352069855, -0.2058655321598053, 0.029120679944753647, 0.12471462786197662, 0.09708686918020248, 0.1803186684846878, 0.11065058410167694, -0.048822276294231415, 0.003272655652835965, 0.3340509533882141, 0.08302924782037735, 0.061478473246097565, 0.018107719719409943, 0.034458842128515244, 0.15335339307785034, -0.05157112330198288, -0.0524110347032547, 0.05571521073579788, 0.006121972110122442, -0.06888400763273239, 0.01711624301970005, 0.10666685551404953, 0.2088414877653122, -0.06431003659963608, 0.13465337455272675, 0.07255139946937561, 0.17485255002975464, 0.001702725887298584, 0.2036249190568924, 0.12668362259864807, 0.14751248061656952, 0.03805702179670334, 0.07095251232385635, 0.14700479805469513, 0.015344190411269665, 0.10287594050168991, -0.03968653455376625, -0.029221590608358383, -0.06506074965000153, 0.06496408581733704, 0.1078161895275116, -0.055290620774030685, 0.036291323602199554, 0.04268535226583481, -0.08710071444511414, 0.09711385518312454, 0.024326542392373085, -0.08105233311653137, -0.04833608120679855, 0.1397465616464615], [-0.044380150735378265, -0.09872772544622421, 0.3038569390773773, -0.013155296444892883, 0.028086600825190544, 0.14451833069324493, 0.035266973078250885, 0.07292362302541733, -0.09278623759746552, -0.037451453506946564, -0.0783425122499466, 0.14422406256198883, 0.1156773716211319, -0.036681998521089554, 0.08040057122707367, 0.08489528298377991, -0.10438332706689835, -0.08237630128860474, 0.13295674324035645, -0.0752505287528038, -0.10777771472930908, -0.010029491037130356, 0.018269840627908707, 0.019369084388017654, 0.17537811398506165, 0.1126030907034874, 0.03984212875366211, 0.16056397557258606, -0.01314946636557579, 0.05891617015004158, 0.15171626210212708, -0.004988888744264841, -0.03933914005756378, -0.083029605448246, -0.03753010928630829, 0.1390085369348526, -0.06489123404026031, -0.11303561925888062, 0.014877324923872948, 0.029188308864831924, 0.005445196758955717, -0.11604370921850204, -0.0448126345872879, 0.11808325350284576, -0.00603246595710516, -0.1342601776123047, 0.10133857280015945, 0.032087914645671844, -0.03539850562810898, -0.061188165098428726, 0.028895311057567596, -0.06642559170722961], [-0.08537743240594864, 0.05621284246444702, -0.05023883283138275, -0.048539865761995316, -0.03388061746954918, -0.08902685344219208, 0.13830333948135376, -0.049752168357372284, 0.09299115091562271, -0.019679328426718712, -0.01985296607017517, -0.028721295297145844, 0.14005053043365479, -0.0012302550021559, 0.04730662330985069, -0.0990142822265625, -0.09904375672340393, -0.02796764113008976, 0.11566747725009918, -0.09413638710975647, 0.01650414988398552, 0.07083471864461899, -0.002788063371554017, 0.11482543498277664, 0.13411782681941986, -0.017559897154569626, 0.1330474615097046, 0.002572127850726247, -0.009188884869217873, 0.11911545693874359, -0.0025870229583233595, 0.020924316719174385, 0.06473766267299652, -0.10037042200565338, -0.004222296178340912, 0.1596446931362152, 0.007733168546110392, -0.08593373000621796, 0.06464540958404541, 0.011196187697350979, -0.026081763207912445, -0.12529875338077545, 0.13018040359020233, -0.017486555501818657, 0.055550239980220795, 0.01453289296478033, -0.13069327175617218, -0.028816843405365944, -0.08135347813367844, -0.12469770759344101, 0.10125162452459335, 0.13265001773834229], [0.17368221282958984, -0.055241748690605164, 0.28079140186309814, 0.002661421662196517, 0.03378063812851906, 0.1424872726202011, 0.030101457610726357, 0.059793975204229355, 0.19587256014347076, -0.06284362822771072, 0.06466265022754669, 0.1793300211429596, 0.08617381751537323, 0.10413336008787155, -0.005249954294413328, 0.02286101132631302, 0.15695346891880035, 0.061996813863515854, 0.021201053634285927, -0.06624843925237656, -0.045783787965774536, 0.02651630900800228, 0.12489931285381317, 0.209355428814888, 0.10093176364898682, -0.0784914568066597, 0.1273985356092453, 0.0738515853881836, 0.03896719962358475, -0.005780369509011507, 0.11845985800027847, 0.02228035219013691, 0.09719830751419067, -0.04935489594936371, 0.06071050465106964, 0.18068593740463257, 0.19615721702575684, 0.008707319386303425, -0.03944650664925575, 0.12871992588043213, -0.08506185561418533, -0.061592306941747665, 0.013328853994607925, 0.030171170830726624, 0.014457271434366703, 0.056819990277290344, 0.0261690653860569, -0.012093394063413143, 0.12502321600914001, 0.10673625022172928, 0.12572357058525085, 0.17277346551418304], [-0.08558492362499237, 0.12875035405158997, 0.1181860938668251, 0.07277004420757294, 0.10584808886051178, -0.07186593860387802, 0.15051788091659546, -0.05914675444364548, -0.09153975546360016, -0.10801629722118378, -0.15714094042778015, 0.1688908189535141, -0.10110864043235779, -0.09079978615045547, 0.09317299723625183, 0.13186043500900269, -0.012037587352097034, 0.09928255528211594, 0.0479440875351429, -0.06807359308004379, -0.11331237107515335, -0.0922265276312828, 0.015056277625262737, -0.009644897654652596, 0.094791479408741, 0.03729698434472084, -0.03279076889157295, 0.10540061444044113, -0.026669980958104134, -0.02168181724846363, -0.06718119233846664, -0.10642720758914948, 0.09784116595983505, 0.05808570981025696, 0.04630018398165703, -0.042535506188869476, -0.062147434800863266, -0.06413065642118454, -0.012262553907930851, 0.09914777427911758, -0.04531599208712578, -0.1367965042591095, 0.085702084004879, -0.0356263630092144, -0.05673133209347725, -0.11423205584287643, -0.12227883189916611, 0.06640460342168808, 0.09079862385988235, 0.06681632250547409, 0.06701474636793137, 0.09126420319080353], [-0.051005683839321136, 0.0801815316081047, 0.21498419344425201, -0.21154925227165222, 0.001929198857396841, 0.09019435942173004, 0.11963184922933578, -0.09933271259069443, 0.14499908685684204, 0.061542920768260956, -0.1291908323764801, 0.09983193129301071, 0.16327327489852905, -0.1749666929244995, 0.15695205330848694, 0.17529374361038208, -0.026138098910450935, 0.026746677234768867, 0.07391485571861267, 0.06409409642219543, 0.06940517574548721, -0.10530618578195572, 0.010724532417953014, 0.19667406380176544, 0.13240770995616913, 0.05392695963382721, 0.1206938847899437, -0.07964300364255905, 0.12072789669036865, 0.04363039880990982, -0.09575607627630234, -0.05187492445111275, -0.038469791412353516, 0.0312422476708889, -0.1287374347448349, 0.1643979698419571, -0.0794944241642952, 0.04706195369362831, 0.12466314435005188, 0.14010031521320343, 0.0124574676156044, -0.022249847650527954, 0.013348578475415707, 0.0250286515802145, 0.12702606618404388, -0.001995945116505027, -0.03061152994632721, -0.08342091739177704, -0.10676034539937973, -0.03539662063121796, 0.12872308492660522, -0.03255406394600868], [0.037309467792510986, 0.14251568913459778, 0.14655007421970367, -0.1347595751285553, -0.013129603117704391, 0.04527079313993454, 0.12510287761688232, 0.015005992725491524, 0.16607406735420227, 0.17646409571170807, 0.006986704654991627, 0.19133955240249634, -0.04478449374437332, -0.05424466356635094, 0.17618462443351746, 0.004284846596419811, 0.09286447614431381, 0.004110391717404127, -0.09461449086666107, 0.06856092810630798, 0.0012823635479435325, -0.053059592843055725, 0.14223052561283112, 0.26848286390304565, 0.06138903275132179, 0.042873430997133255, -0.03360790014266968, 0.17081902921199799, 0.18132252991199493, -0.07228384912014008, -0.028272241353988647, 0.061321429908275604, 0.07061402499675751, 0.14100997149944305, -0.1378823071718216, 0.018085140734910965, 0.1880071461200714, -0.06924796104431152, 0.017841516062617302, 0.17340146005153656, 0.06442146003246307, 0.07813423126935959, 0.1441083550453186, 0.12012510001659393, -0.04907134920358658, -0.13433557748794556, 0.16099093854427338, 0.03719998151063919, -0.04605919122695923, -0.05879378691315651, -0.024346696212887764, -0.02242528833448887], [-0.08108380436897278, -0.07995659857988358, 0.08678202331066132, -0.05276518687605858, 0.013713768683373928, 0.026350518688559532, -0.12228262424468994, -0.07689186930656433, 0.0577402338385582, 0.0012288738507777452, -0.06295020878314972, 0.16255256533622742, -0.022558478638529778, 0.052252497524023056, 0.04240410029888153, 0.08585312962532043, -0.11794005334377289, 0.09935455769300461, 0.04881254583597183, 0.13363465666770935, -0.09148942679166794, 0.040864430367946625, 0.1100580245256424, 0.16278621554374695, 0.14259696006774902, 0.060125600546598434, -0.11605655401945114, -0.04767203330993652, -0.032651137560606, -0.08487983793020248, -0.08024132251739502, -0.10669513791799545, 0.09275747090578079, -0.10039044916629791, 0.06574516743421555, 0.07875403016805649, 0.0824628472328186, 0.051587872207164764, 0.03968450799584389, 0.11645949631929398, -0.10605176538228989, 0.08683132380247116, 0.10529676824808121, 0.042176660150289536, 0.005603330209851265, 0.0011822779197245836, -0.12265333533287048, 0.1457611620426178, -0.11662792414426804, 0.08596813678741455, -0.03576194867491722, 0.06789237260818481], [0.12082978338003159, 0.06400122493505478, -0.05716944858431816, 0.0627964660525322, -0.05056595429778099, -0.053875699639320374, 0.018006881698966026, 0.057919394224882126, 0.11831111460924149, 0.09075141698122025, 0.18203143775463104, -0.019512701779603958, -0.10232711583375931, -0.03557725250720978, -0.06723862886428833, 0.026570070534944534, -0.1283317357301712, -0.01593198999762535, 0.04975368082523346, -0.03145706281065941, -0.08872724324464798, -0.004352081101387739, -0.050269532948732376, -0.07097043842077255, 0.13644450902938843, -0.1141512542963028, -0.07586868852376938, 0.07213012129068375, 0.05440092459321022, 0.003756061429157853, -0.007135102991014719, -0.03338073566555977, 0.011544466949999332, 0.07316061854362488, -0.07250785827636719, 0.06185540184378624, -0.11634805053472519, 0.046714797616004944, -0.11373533308506012, 0.05843885615468025, 0.06644286215305328, -0.13273011147975922, -0.05147771164774895, -0.12224280834197998, 0.06956300139427185, 0.11186022311449051, -0.0629977285861969, -0.10186861455440521, 0.12399830669164658, -0.002079315949231386, 0.06898974627256393, 0.014776842668652534], [0.10119341313838959, 0.03254583477973938, 0.3638276755809784, -0.0722452849149704, 0.131939098238945, 0.04854000359773636, 0.18981321156024933, 0.18326987326145172, 0.05845269560813904, 0.14635099470615387, -0.006671665236353874, 0.18886657059192657, 0.2396489828824997, -0.009730950929224491, 0.0885649248957634, -0.026696430519223213, 0.044490378350019455, -0.007963878102600574, -0.06899593025445938, 0.07073473930358887, -0.03465753048658371, -0.019953180104494095, -0.10938876122236252, 0.30202120542526245, 0.03697363659739494, 0.11847738176584244, 0.19947180151939392, 0.16700120270252228, 0.09738584607839584, 0.0861777514219284, 0.1803533434867859, 0.04248833656311035, -0.029636206105351448, -0.09320281445980072, 0.08488254994153976, 0.035991035401821136, -0.0036813211627304554, 0.008629290387034416, 0.10629010200500488, 0.21289025247097015, -0.04106692224740982, 0.05346236377954483, 0.06844358146190643, 0.0388968326151371, 0.15696418285369873, -0.01963130570948124, -0.0869360864162445, 0.19123868644237518, 0.04968409612774849, -0.08769676089286804, -0.05304308235645294, 0.09383810311555862], [-0.030177025124430656, -0.006124164909124374, 0.2952561378479004, -0.16345426440238953, -0.05844051390886307, 0.1315753012895584, 0.06272267550230026, -0.11227255314588547, 0.09335499256849289, 0.1761060357093811, 0.019655099138617516, 0.07464901357889175, 0.10041110217571259, -0.041994608938694, 0.13870888948440552, 0.1682087481021881, 0.022887371480464935, 0.0015890866052359343, -0.07036905735731125, -0.11309821903705597, -0.14951343834400177, -0.12255383282899857, -0.10971300303936005, 0.0014345904346555471, -0.03322954475879669, -0.06678988039493561, -0.04236304387450218, 0.06009022891521454, 0.08852788805961609, -0.05238614231348038, 0.05134456977248192, -0.02558000385761261, -0.01900019869208336, -0.09952983260154724, -0.11544820666313171, 0.14500582218170166, 0.09036523103713989, 0.06459825485944748, 0.16152137517929077, -0.02420325018465519, -0.03165021166205406, 0.10894941538572311, 0.01721556857228279, 0.10182240605354309, 0.009100386872887611, -0.12266550958156586, 0.0500599667429924, 0.12521979212760925, -0.06842543184757233, 0.11977197974920273, -0.09494023770093918, 0.08077677339315414], [0.1420944482088089, 0.10238766670227051, 0.08142413198947906, -0.18202467262744904, 0.06390313804149628, -0.08218151330947876, 0.11194068938493729, 0.08120349794626236, 0.0658610537648201, 0.12482810765504837, 0.08818306028842926, 0.1976722776889801, 0.003708838950842619, 0.10302407294511795, 0.12732768058776855, 0.2029934823513031, 0.074988953769207, -0.050943318754434586, 0.14451390504837036, -0.08767454326152802, 0.14561697840690613, 0.13358242809772491, 0.04857286810874939, 0.035966407507658005, 0.12637832760810852, -0.04054954648017883, 0.16761581599712372, 0.11252932995557785, 0.1103263720870018, -0.014328330755233765, 0.014826747588813305, -0.040613844990730286, 0.06403124332427979, 0.017954988405108452, 0.09973104298114777, 0.05587580054998398, 0.021061033010482788, 0.02925211191177368, -0.04539644345641136, 0.18021391332149506, 0.00705945398658514, 0.14229343831539154, 0.014990664087235928, 0.11041527986526489, -0.07507485896348953, -0.0789577066898346, -0.04797820746898651, 0.14886720478534698, -0.03208286315202713, -0.02938794158399105, 0.17363928258419037, 0.022330639883875847], [-0.05762801691889763, -0.03260421007871628, 0.16566090285778046, -0.05452628433704376, 0.023009026423096657, 0.13307812809944153, 0.043483223766088486, 0.07981231808662415, -0.09889975935220718, -0.05766594782471657, -0.04129698500037193, 0.23275548219680786, 0.00877796858549118, -0.16899047791957855, 0.10835958272218704, -0.020526403561234474, 0.0493459589779377, -0.13262471556663513, 0.09323456138372421, -0.10187369585037231, 0.06710521131753922, -0.036331821233034134, 0.08417794108390808, 0.06974601745605469, -0.017817191779613495, -0.13848614692687988, -0.028778793290257454, 0.1445620208978653, 0.13287220895290375, -0.019920215010643005, 0.041832756251096725, 0.1269170343875885, 0.03005504421889782, 0.05144113302230835, -0.07955323904752731, 0.1273694634437561, 0.09327983856201172, -0.04920461028814316, -0.010735932737588882, 0.14225472509860992, 0.04483456909656525, 0.08421910554170609, -0.0909448191523552, -0.02911682240664959, -0.00327807804569602, 0.10350165516138077, -0.14274588227272034, -0.10702476650476456, -0.09002923220396042, -0.0601581372320652, 0.015160299837589264, 0.10104673355817795], [-0.12695623934268951, -0.057861343026161194, 0.0473015122115612, -0.1362229734659195, -0.08104749023914337, -0.0748445987701416, 0.01367888506501913, -0.003186451504006982, 0.07969620078802109, 0.06670067459344864, 0.07782123237848282, 0.0917598083615303, 0.07260365784168243, 0.06119857728481293, -0.07066277414560318, -0.11856267601251602, 0.07347165048122406, 0.035817574709653854, 0.08270309120416641, 0.07205582410097122, -0.08179770410060883, 0.0036703739315271378, -0.12696979939937592, -0.049541179090738297, -0.07728614658117294, -0.055946268141269684, 0.08185116201639175, -0.08476328104734421, 0.010785584338009357, -0.050218336284160614, -0.09941980987787247, -0.10232450067996979, 0.02827666699886322, -0.077370785176754, -0.10825832933187485, -0.12446815520524979, -0.11892596632242203, -0.06624705344438553, -0.09055157005786896, -0.10880034416913986, 0.01891729049384594, 0.026497909799218178, 0.020841259509325027, -0.006880547851324081, -0.01618189737200737, 0.0028491292614489794, -0.059956327080726624, -0.12102123349905014, -0.0038764041382819414, 0.135226309299469, 0.05941900983452797, -0.04998750984668732], [-0.027919290587306023, -0.05662577599287033, 0.28187504410743713, -0.000695224036462605, 0.17181183397769928, 0.017782138660550117, 0.09008384495973587, 0.14996375143527985, 0.06896165758371353, 0.10965804010629654, -0.07627423852682114, 0.0761624127626419, 0.08613485842943192, -0.08959274739027023, -0.0011942298151552677, 0.031193573027849197, -0.04141176864504814, 0.18694983422756195, 0.08874892443418503, 0.10561497509479523, -0.023179804906249046, 0.08401302993297577, 0.02331940084695816, 0.06814144551753998, 0.09843892604112625, 0.03680628910660744, 0.024148868396878242, 0.08244019001722336, 0.08190397173166275, 0.1367507129907608, 0.18626073002815247, 0.007011221721768379, 0.12873642146587372, 0.1430741846561432, 0.10626629739999771, 0.15836136043071747, 0.008313884027302265, 0.0007601161487400532, 0.009490743279457092, 0.14168621599674225, -0.0812956765294075, 0.10738613456487656, -0.005852248053997755, 0.012283743359148502, 0.09965036809444427, 0.06395472586154938, -0.045904431492090225, 0.08608724176883698, 0.00752512039616704, 0.16225460171699524, -0.002208021702244878, -0.08976560831069946], [0.1420750617980957, 0.011077078059315681, 0.2038344442844391, 0.031104162335395813, 0.0627811998128891, -0.08297967165708542, 0.12111222743988037, -0.07513386011123657, -0.050617046654224396, -0.023899490013718605, 0.0683731883764267, -2.6454334147274494e-05, 0.06288623064756393, -0.15321065485477448, -0.08346454054117203, 0.11042138934135437, 0.1075289323925972, 0.08229287713766098, 0.13185137510299683, -0.004468879662454128, 0.08018147945404053, -0.012755343690514565, 0.024996761232614517, 0.15185225009918213, -0.08018616586923599, 0.09067321568727493, 0.13601937890052795, 0.1342509388923645, 0.16753767430782318, 0.10478141903877258, 0.07970035076141357, -0.09384071081876755, -0.07337769865989685, 0.1264743208885193, -0.1157330870628357, 0.09026646614074707, 0.12837469577789307, 0.09998111426830292, 0.14565066993236542, 0.031197991222143173, -0.07841295003890991, -0.12703199684619904, -0.07864416390657425, 0.029401710256934166, -0.050932519137859344, 0.02478553168475628, -0.11061461269855499, 0.15831753611564636, -0.06936966627836227, 0.01651034876704216, 0.011126155965030193, -0.06815500557422638], [0.11199188977479935, -0.0033719507046043873, -0.21740712225437164, 0.17594698071479797, 0.07117334008216858, 0.17183619737625122, -0.08195381611585617, 0.07095301151275635, 0.17100918292999268, 0.05011157691478729, 0.28477707505226135, -0.14202672243118286, 0.03177100792527199, 0.05332605540752411, -0.04767313227057457, -0.07330263406038284, -0.007352775894105434, -0.06391669064760208, -0.0005757714970968664, 0.14836739003658295, 0.0909438356757164, -0.12037970870733261, 0.14114244282245636, -0.2046414464712143, 0.10516495257616043, 0.13226403295993805, 0.036158088594675064, -0.054004717618227005, -0.05209715664386749, -0.03949465602636337, 0.03412796929478645, 0.028730550780892372, 0.13189828395843506, -0.07314088195562363, 0.1386282742023468, -0.2504437267780304, -0.04323824122548103, 0.12505494058132172, -0.034632086753845215, -0.04002538323402405, 0.06622053682804108, -0.0276079960167408, -0.11671429127454758, 0.02255212888121605, 0.0764274075627327, 0.025191787630319595, 0.10725907981395721, -0.21289639174938202, 0.004256617743521929, -0.014080442488193512, 0.08527952432632446, -0.12364558130502701], [0.1512676328420639, -0.06653998792171478, 0.1500222235918045, -0.0573900081217289, 0.07543008774518967, -0.058041952550411224, 0.12323620170354843, 0.061623990535736084, 0.024466421455144882, 0.02310577780008316, -0.13901326060295105, 0.1882658302783966, -0.08292175084352493, 0.0858457013964653, 0.017381856217980385, -0.011166463606059551, -0.08581520617008209, -0.07005581259727478, 0.15977847576141357, -0.014332855120301247, -0.0011810421710833907, 0.0637163296341896, 0.013174780644476414, 0.13853512704372406, -0.05315084382891655, 0.12088531255722046, -0.05017178878188133, -0.022126594558358192, 0.014703578315675259, -0.008541770279407501, 0.06855908781290054, -0.03033415786921978, -0.13624022901058197, 0.07549666613340378, 0.008246194571256638, 0.10040900856256485, 0.02488129213452339, 0.07146844267845154, 0.14465798437595367, -0.10986246913671494, -0.04804522916674614, 0.08362127095460892, -0.10472337156534195, -0.17275993525981903, -0.1392737329006195, 0.08610852062702179, -0.07646889239549637, -0.13677765429019928, -0.05100296437740326, 0.09253513067960739, -0.0593985989689827, 0.012068752199411392], [0.058361902832984924, -0.014997279271483421, 0.20682434737682343, -0.013546853326261044, 0.20039193332195282, 0.07870865613222122, 0.1480346918106079, -0.06478051841259003, 0.12066030502319336, -0.055896684527397156, 0.0013926042011007667, 0.1376868337392807, 0.1340695023536682, -0.09760180860757828, 0.06621018052101135, 0.0957152396440506, -0.04761843755841255, 0.1682048738002777, 0.06701171398162842, 0.05856509506702423, 0.10702190548181534, 0.1327352672815323, 0.001331717474386096, 0.12868686020374298, -0.021120743826031685, 0.04015062376856804, 0.1621566116809845, 0.131757915019989, 0.16354794800281525, 0.1083853542804718, 0.036961864680051804, 0.07324870675802231, 0.1974671185016632, 0.002449187682941556, 0.0962214544415474, 0.05445371940732002, 0.14438682794570923, -0.011398128233850002, 0.09645198285579681, 0.217723548412323, 0.06536664813756943, 0.11030207574367523, 0.1521875411272049, 0.17685794830322266, 0.12816590070724487, -0.11393623054027557, 0.028570886701345444, 0.20399852097034454, -0.0113229900598526, -0.05250922963023186, 0.1723991334438324, 0.07213329523801804], [0.1637604534626007, -0.011099028401076794, 0.3372342586517334, -0.22457237541675568, 0.007172645069658756, 0.08086927980184555, -0.02987247332930565, 0.13986912369728088, 0.1781981885433197, 0.08456222712993622, -0.01840698905289173, 0.14603619277477264, 0.03717026859521866, -0.10858673602342606, 0.02930290624499321, 0.21856625378131866, -0.047713086009025574, 0.12962116301059723, -0.05537887662649155, 0.008374921977519989, -0.07524018734693527, 0.08077902346849442, 0.012247527949512005, 0.25720831751823425, 0.12217257916927338, 0.10576093196868896, 0.09162705391645432, 0.20157115161418915, 0.15595680475234985, -0.08026876300573349, 0.028806645423173904, 0.055784452706575394, -0.020836690440773964, 0.03976492956280708, -0.11310122162103653, 0.04269276186823845, 0.11587125808000565, -0.009402332827448845, 0.10062354058027267, -0.0027775715570896864, -0.08192827552556992, 0.052994340658187866, 0.04609955474734306, 0.11633976548910141, -0.010510438121855259, 0.08511023968458176, -0.0019392339745536447, 0.002936478704214096, 0.05912402272224426, 0.15462429821491241, -0.06780685484409332, 0.11950258165597916], [0.19600875675678253, 0.01043520774692297, 0.25119584798812866, 0.07589054107666016, 0.017061147838830948, 0.1412758231163025, -0.0401604138314724, -0.0058307163417339325, -0.0033642107155174017, -0.008140726946294308, 0.0997856855392456, 0.09667045623064041, -0.012127664871513844, -0.07260709255933762, 0.09089042991399765, 0.23024632036685944, 0.03667037561535835, 0.10941842198371887, 0.09714003652334213, -0.06125704571604729, 0.11481339484453201, 0.10525915771722794, -0.045774780213832855, 0.24394533038139343, 0.17786778509616852, 0.11501505225896835, 0.20124968886375427, -0.02596871741116047, 0.19045379757881165, 0.030760983005166054, 0.07924988865852356, 0.016057590022683144, 0.1456257700920105, 0.1687893122434616, -0.029490159824490547, 0.023317765444517136, 0.1273731291294098, 0.07993413507938385, 0.11697324365377426, 0.18393491208553314, 0.11165540665388107, -0.044020649045705795, 0.14827729761600494, 0.1640121340751648, 0.058146923780441284, 0.041105784475803375, 0.013597524724900723, -0.04922595992684364, -0.065195731818676, -0.07014817744493484, 0.16998116672039032, 0.1151236742734909], [0.07389296591281891, -0.0053932396695017815, 0.15812182426452637, -0.2402607649564743, -0.03866337612271309, 0.06377799063920975, 0.08252651989459991, 0.01453481800854206, 0.1089235320687294, 0.20068280398845673, -0.08522157371044159, 0.2057476043701172, -0.04703372344374657, -0.01921594701707363, 0.0716937705874443, 0.0700448602437973, -0.06958989799022675, -0.11346002668142319, 0.03360193967819214, 0.010528648272156715, 0.013921896927058697, 0.00040954636642709374, 0.014598410576581955, 0.20419684052467346, -0.059444963932037354, 0.09793730080127716, 0.11674926429986954, -0.012220234610140324, 0.11977561563253403, 0.1039804071187973, -0.0517738051712513, -0.09009803086519241, 0.0846765786409378, -0.13676796853542328, 0.0003014839312527329, 0.16250286996364594, 0.06749844551086426, -0.02587064914405346, -0.023856841027736664, -0.04185698926448822, 0.07490381598472595, -0.11441845446825027, -0.08010149747133255, 0.10243496298789978, -0.0432749018073082, -0.16528074443340302, 0.005305067636072636, 0.16548077762126923, 0.06060754507780075, -0.08314666152000427, -0.014222032390534878, 0.038606416434049606], [-0.005619814619421959, -0.027300328016281128, 0.038418058305978775, 0.05481640249490738, -0.09492629766464233, -0.08398183435201645, 0.01755833439528942, 0.15765026211738586, -0.06336822360754013, 0.034149084240198135, -0.1492530256509781, 0.015166649594902992, 0.030134668573737144, -0.024355409666895866, 0.08768893778324127, 0.14863236248493195, -0.02774207480251789, 0.14777858555316925, 0.1259094774723053, 0.06381209194660187, 0.10371609032154083, -0.1080806776881218, 0.08364419639110565, 0.013363267295062542, 0.10094825178384781, -0.025751130655407906, 0.1308656930923462, 0.10841453820466995, 0.10065211355686188, -0.018699413165450096, 0.07189308851957321, 0.12058576941490173, -0.11038067191839218, -0.08891557902097702, -0.14465942978858948, 0.15020988881587982, -0.008455327711999416, 0.015376214869320393, -0.08375218510627747, -0.0270578321069479, 0.023688336834311485, -0.06228186935186386, 0.0552900955080986, 0.06005410477519035, -0.04652375727891922, 0.05387883260846138, -0.10356596857309341, -0.07658537477254868, -0.003637811169028282, 0.1484547108411789, -0.060475174337625504, 0.14840978384017944], [-0.03445926681160927, 0.04163137823343277, 0.12540486454963684, 0.09307195991277695, 0.03898124396800995, 0.19609342515468597, 0.0383714884519577, 0.1324044018983841, 0.012180602177977562, 0.007203002460300922, 0.04034805670380592, 0.1744309961795807, -0.0145972715690732, -0.10317788273096085, 0.1852441430091858, 0.11467666923999786, 0.0755835473537445, 0.17767693102359772, 0.11171629279851913, 0.18927261233329773, 0.02996411919593811, -0.033448413014411926, 0.13314853608608246, 0.1912408024072647, 0.23555119335651398, 0.12823553383350372, 0.12566973268985748, 0.037151675671339035, 0.008987238630652428, 0.09041642397642136, 0.0744909942150116, 0.03457189351320267, 0.14937371015548706, -0.07932393997907639, 0.00566110759973526, 0.0499105341732502, 0.13200528919696808, 0.2021646946668625, 0.17595425248146057, 0.11309817433357239, 0.17892736196517944, -0.052788037806749344, 0.16938911378383636, 0.1136002466082573, 0.036927808076143265, -0.0429062657058239, 0.01036444678902626, 0.21796956658363342, -0.06061238795518875, 0.052254416048526764, 0.058697763830423355, 0.15810434520244598], [-0.03076254576444626, 0.16180232167243958, -0.2719176709651947, 0.20121708512306213, 0.13940690457820892, 0.03211081773042679, 0.014204883016645908, -0.07070136815309525, 0.18921107053756714, 0.005036128219217062, 0.07997503131628036, -0.30209773778915405, 0.1047729104757309, 0.09243852645158768, 0.15459373593330383, 0.11758914589881897, -0.025831840932369232, 0.013333404436707497, 0.07474328577518463, -0.012594489380717278, 0.19295650720596313, -0.03178630396723747, 0.08680165559053421, -0.14143386483192444, 0.03729643300175667, 0.18306586146354675, -0.001784779829904437, -0.07506833970546722, -0.04836885631084442, -0.08563230186700821, 0.10517679899930954, 0.007173887453973293, 0.13206593692302704, 0.06548424810171127, 0.22421088814735413, -0.2647398114204407, -0.051333095878362656, 0.06908069550991058, -0.07477780431509018, 0.05673811584711075, 0.08876675367355347, 0.08876695483922958, -0.026871437206864357, 0.1317756175994873, -0.05118505284190178, 0.09864029288291931, -0.04310203716158867, -0.17383459210395813, 0.031194575130939484, 0.020159801468253136, -0.07686588168144226, -0.12051400542259216], [0.17949546873569489, 0.01130600180476904, 0.23964564502239227, 0.022456998005509377, 0.11687194555997849, -0.012513946741819382, -0.03800858184695244, -0.06064946949481964, 0.025908615440130234, 0.005055425688624382, 0.005637157242745161, 0.14752206206321716, 0.03442088142037392, -0.051734525710344315, -0.030818937346339226, -0.0005804332322441041, 0.037890370935201645, 0.10299624502658844, 0.009661692194640636, 0.14450135827064514, 0.11132078617811203, 0.10532978177070618, 0.14544129371643066, 0.20581474900245667, 0.18430601060390472, 0.04131961986422539, 0.03697359934449196, 0.16023416817188263, 0.20496079325675964, 0.05932977795600891, -0.062198054045438766, 0.18671239912509918, 0.11911442130804062, -0.017107678577303886, -0.07088299840688705, 0.01906086504459381, 0.15722133219242096, 0.037873756140470505, 0.07797859609127045, 0.0787830725312233, 0.05586439371109009, -0.08273180574178696, 0.12907718122005463, 0.10988103598356247, 0.01818064972758293, -0.05052655562758446, -0.002900488441810012, -0.019466545432806015, -0.08408264815807343, 0.06602337211370468, 0.04947337508201599, 0.03308938816189766], [0.11467666178941727, 0.1420653760433197, 0.32510069012641907, 0.0010203480487689376, -0.012101651169359684, 0.14572879672050476, 0.19963927567005157, 0.058988057076931, -0.02341257780790329, 0.13898248970508575, -0.11802943795919418, 0.18381758034229279, 0.045136962085962296, 0.0872921422123909, -0.026002537459135056, 0.0920925885438919, 0.15923231840133667, 0.0925334021449089, 0.03313349187374115, -0.016409695148468018, 0.020428773015737534, 0.1837163120508194, 0.042050715535879135, 0.15295587480068207, 0.007462089881300926, -0.06856010854244232, 0.019976802170276642, 0.172422394156456, 0.16102860867977142, 0.1061817929148674, 0.009507124312222004, 0.07022528350353241, 0.016891635954380035, 0.16186803579330444, 0.08082447946071625, 0.11536739021539688, -0.04582659900188446, 0.039182696491479874, 0.19743140041828156, -0.020717443898320198, 0.06081661209464073, -0.049898725003004074, 0.1055842787027359, 0.14461959898471832, 0.056873854249715805, -0.0025196424685418606, 0.0759972482919693, 0.1320282518863678, 0.14145153760910034, 0.03808204084634781, -0.03117891401052475, 0.15912578999996185], [0.08474911004304886, -0.025194257497787476, 0.17954616248607635, -0.0847271978855133, 0.07918423414230347, 0.1676870733499527, 0.03379005566239357, -0.035488151013851166, -0.09054603427648544, -0.023053664714097977, -0.056811049580574036, 0.2192496657371521, 0.0906694084405899, 0.046724848449230194, 0.043574221432209015, 0.14415284991264343, -0.04239119961857796, -0.03696952760219574, 0.12439509481191635, -0.016395285725593567, -0.030502628535032272, 0.16296891868114471, -0.09185539186000824, 0.14662882685661316, 0.1030687689781189, 0.09686080366373062, 0.10122941434383392, 0.062313515692949295, -0.05806076154112816, 0.14238041639328003, -0.007556012831628323, 0.019625330343842506, 0.010225245729088783, -0.08705756813287735, 0.13389292359352112, 0.1040789857506752, -0.01897992193698883, 0.15657122433185577, 0.10704546421766281, 0.1195424348115921, 0.13818329572677612, -0.005448818206787109, 0.12635815143585205, 0.07402239739894867, 0.04631726071238518, 0.004022242035716772, -0.09653571248054504, -0.06488315016031265, -0.0839313417673111, -0.05560462921857834, -0.08768966048955917, 0.08952931314706802], [-0.07245892286300659, -0.018448611721396446, -0.1053168848156929, 0.09893482178449631, 0.09529456496238708, -0.04411589354276657, -0.12386156618595123, 0.013331565074622631, -0.07387284934520721, -0.0786857008934021, -0.06529303640127182, 0.11261186003684998, 0.11779067665338516, 0.04206949472427368, -0.13712923228740692, 0.031012767925858498, -0.03650373965501785, 0.11742503196001053, -0.0050596194341778755, 0.05588497221469879, 0.026850754395127296, -0.11186718195676804, -0.14261791110038757, -0.029373401775956154, 0.11589013040065765, -0.14329229295253754, 0.07987930625677109, 0.02982560358941555, -0.1317416876554489, 0.05002924054861069, -0.08908253908157349, -0.06721536815166473, 0.09972123801708221, -0.03498002141714096, -0.148228257894516, 0.057251982390880585, 0.11991409212350845, 0.009744511917233467, 0.09099000692367554, -0.06976845115423203, -0.13816533982753754, -0.13614633679389954, -0.04586832970380783, -0.11314647644758224, 0.024700120091438293, 0.07389840483665466, 0.11659513413906097, -0.13167032599449158, -0.059411726891994476, -0.037338729947805405, -0.033903568983078, -0.02164400927722454], [0.11035752296447754, 0.07349912822246552, 0.08934732526540756, 0.010587312281131744, 0.07324834913015366, 0.02402384951710701, -0.03207844868302345, -0.05745380371809006, -0.03054029308259487, 0.16336384415626526, -0.146567702293396, 0.27065014839172363, 0.20528778433799744, -0.10649090260267258, -0.023244669660925865, 0.13713911175727844, 0.1746760755777359, -0.0069800615310668945, -0.09025194495916367, 0.05010129511356354, -0.015316463075578213, 0.042513538151979446, 0.1197928637266159, 0.2647548317909241, 0.18259648978710175, 0.03359221667051315, 0.1793670505285263, 0.008951718918979168, 0.10187286883592606, 0.12370786815881729, -0.014749466441571712, 0.14347921311855316, 0.08506769686937332, -0.05282506346702576, 0.13297662138938904, 0.051940932869911194, 0.15172027051448822, 0.04337170347571373, -0.023372046649456024, 0.16315674781799316, 0.1624031662940979, -0.06290702521800995, 0.06835023313760757, 0.03989867866039276, 0.010172922164201736, 0.09478221833705902, 0.11922745406627655, 0.20572979748249054, -0.0653209239244461, 0.03876689821481705, 0.17759749293327332, -0.019405672326683998], [0.1201380118727684, -0.03080453909933567, 0.11181677877902985, -0.06598274409770966, -0.052738409489393234, 0.07601035386323929, 0.18026044964790344, 0.013474516570568085, 0.035400040447711945, 0.11397596448659897, -0.06021089851856232, 0.09377077221870422, -0.007247778587043285, -0.09342951327562332, 0.09242885559797287, 0.037280045449733734, 0.1007603257894516, -0.015467782504856586, 0.1274421662092209, 0.003821493126451969, 0.07097737491130829, 0.09920819848775864, -0.04376068338751793, 0.19939060509204865, 0.1529407948255539, -0.03609999641776085, 0.1892625242471695, 0.19423793256282806, 0.0950007438659668, 0.11245138943195343, 0.0738050565123558, 0.17159739136695862, -0.028604203835129738, -0.049538664519786835, -0.1251380294561386, 0.02051311731338501, -0.021619537845253944, 0.11205391585826874, 0.0265719722956419, 0.16779319941997528, 0.09559334814548492, 0.12184666842222214, 0.13446559011936188, -0.06140441447496414, 0.025190135464072227, 0.0009102775948122144, -0.07534635812044144, 0.14518897235393524, 0.13388217985630035, 0.12014730274677277, 0.05839047580957413, 0.034284599125385284], [0.09427627176046371, -0.09246420115232468, 0.11582138389348984, -0.14063051342964172, 0.15643693506717682, 0.005434524267911911, 0.1024823933839798, 0.12981262803077698, 0.13473503291606903, 0.01873602159321308, -0.061491649597883224, 0.1747056543827057, 0.19741325080394745, -0.011149020865559578, -0.08295845240354538, -0.03032519482076168, -0.07512977719306946, 0.04165784642100334, 0.1357748657464981, 0.055721625685691833, 0.1421189308166504, 0.17203737795352936, -0.07634446024894714, 0.04016471281647682, 0.22051148116588593, 0.141572967171669, 0.06375180929899216, 0.11305494606494904, -0.05006004869937897, -0.01686752960085869, -0.013919665478169918, -0.008624852634966373, 0.009106352925300598, 0.020958837121725082, -0.08313242346048355, 0.07655759900808334, 0.19985638558864594, 0.01348918303847313, 0.028471555560827255, 0.2083565890789032, 0.06268627196550369, -0.06116056442260742, 0.14617881178855896, 0.11727829277515411, -0.07682091742753983, 0.06815020740032196, -0.03744306042790413, -0.06818819791078568, 0.09222561866044998, -0.04635503143072128, 0.04516465589404106, -0.06939230859279633], [0.21453678607940674, -0.005428715609014034, 0.3177686333656311, 0.06277333199977875, 0.023635759949684143, 0.20249031484127045, -0.013392902910709381, 0.04580465704202652, -0.01201318297535181, 0.12000171095132828, -0.11191699653863907, 0.13660305738449097, 0.08759178966283798, 0.1655537337064743, 0.0678933784365654, 0.22460319101810455, 0.14936836063861847, 0.10749974101781845, 0.018444545567035675, 0.08880053460597992, 0.07346693426370621, 0.03945521265268326, 0.10184865444898605, 0.21903537213802338, 0.03007548116147518, 0.028072331100702286, 0.016080347821116447, 0.18749214708805084, 0.11573855578899384, 0.0934082418680191, 0.1410178691148758, 0.13094961643218994, 0.11084591597318649, -0.06854500621557236, -0.06404755264520645, 0.22317948937416077, 0.21309562027454376, -0.07223636656999588, 0.16145692765712738, 0.06075234338641167, 0.08950803428888321, -0.07769529521465302, 0.14792004227638245, 0.060734350234270096, 0.09417565912008286, 0.016574367880821228, -0.0314863920211792, -0.025616692379117012, 0.06615312397480011, -0.015559530816972256, -0.0133444182574749, 0.12611515820026398], [0.16567692160606384, 0.1236167848110199, 0.13654562830924988, 0.0038070902228355408, 0.19154009222984314, 0.12997664511203766, 0.09147501736879349, 0.042379483580589294, 0.18139953911304474, 0.0535467229783535, -0.06955552846193314, 0.13020116090774536, 0.2105010747909546, -0.08525677770376205, 0.17172837257385254, 0.021698633208870888, 0.0024042888544499874, 0.10330059379339218, 0.11391802132129669, 0.01733400486409664, 0.14581531286239624, 0.0685298889875412, -0.04243254289031029, 0.29661640524864197, 0.1509120762348175, 0.06539318710565567, 0.05574552342295647, 0.03134741634130478, 0.15382805466651917, -0.04577019438147545, 0.11657434701919556, 0.15274947881698608, 0.18039833009243011, 0.043691158294677734, -0.0036548636853694916, 0.22896531224250793, 0.009322529658675194, 0.17238786816596985, 0.1963077038526535, 0.16540689766407013, 0.0620744563639164, -0.04461711272597313, -0.06200006231665611, -0.07152947783470154, 0.018969286233186722, -0.11843004077672958, 0.18186122179031372, 0.1950584501028061, -0.017745519056916237, 0.1255277693271637, -0.038883063942193985, -0.04905978590250015], [0.0320381298661232, 0.0026190902572125196, 0.09557946026325226, -0.045130256563425064, 0.17162755131721497, -0.09574807435274124, -0.08168547600507736, 0.06991617381572723, 0.055583640933036804, -0.005848929286003113, -0.14651963114738464, 0.03983844816684723, 0.019029326736927032, 0.0961374044418335, -0.061016976833343506, 0.04602743685245514, 0.13563764095306396, 0.029895618557929993, -0.0036904090084135532, -0.10993670672178268, 0.047257568687200546, 0.1509404331445694, 0.10240490734577179, 0.09805403649806976, 0.031924426555633545, 0.05359409376978874, -0.06953142583370209, 0.06202612444758415, 0.05621204152703285, 0.12283176928758621, 0.16428230702877045, 0.07744156569242477, 0.09161495417356491, 0.007373345084488392, -0.12915359437465668, -0.023311974480748177, 0.0894254520535469, 0.05285429209470749, 0.18398624658584595, -0.04695979878306389, 0.06018225848674774, 0.0822618305683136, -0.051959119737148285, -0.12533758580684662, 0.042871344834566116, -0.1230379268527031, -0.011878413148224354, 0.08162537217140198, -0.08662441372871399, -0.0602998323738575, -0.0512520857155323, 0.11848134547472], [-0.022001415491104126, -0.12743765115737915, -0.12424535304307938, -0.1070491150021553, 0.0828157439827919, -0.1186428815126419, -0.05494896322488785, 0.022474631667137146, -0.11138349026441574, 0.12348220497369766, 0.05263003706932068, 0.06326702982187271, -0.012812452390789986, -0.049353379756212234, 0.04231426864862442, 0.12582673132419586, -0.06006763502955437, -0.08917989581823349, -0.06640908122062683, -0.010776227340102196, 0.02144528180360794, -0.006132686045020819, -0.07523845881223679, -0.12396477162837982, 0.045557454228401184, 0.008763122372329235, -0.10303744673728943, -0.12342876195907593, 0.018348628655076027, 0.04553796350955963, 0.0035561423283070326, -0.12005854398012161, 0.11161932349205017, 0.0361662395298481, -0.03687616065144539, 0.06862500309944153, -0.06366148591041565, 0.0033064030576497316, -0.0070969597436487675, 0.0318291038274765, -0.09135482460260391, -0.07933700829744339, 0.09952843934297562, -0.11968035995960236, 0.0686584860086441, 0.029537925496697426, 0.012330935336649418, 0.017688466235995293, -0.13052193820476532, -0.06280000507831573, -0.09079988300800323, 0.0004703335580416024], [-0.07025156915187836, 0.1214660257101059, -0.2084701657295227, 0.13488000631332397, 0.02475879341363907, -0.05042709782719612, 0.016917170956730843, 0.0635584145784378, 0.06578703224658966, -0.0723201110959053, 0.058896053582429886, -0.04706764966249466, 0.09534896910190582, 0.0880194902420044, 0.10087074339389801, -0.0069715408608317375, 0.08910699188709259, -0.05095287039875984, 0.15183566510677338, -0.07216409593820572, -0.06270185858011246, 0.06318323314189911, -0.04646835848689079, -0.16531309485435486, -0.04088860750198364, -0.047561660408973694, 0.06663697957992554, 0.11540502309799194, 0.07160980254411697, -0.08954068273305893, 0.09980887919664383, 0.07194720208644867, 0.021719245240092278, -0.0033652368001639843, 0.12466737627983093, -0.20847396552562714, 0.034896913915872574, 0.08237260580062866, -0.07574770599603653, -0.05104333162307739, -0.05173031613230705, -0.051526449620723724, -0.048570550978183746, -0.06344384700059891, 0.04432571679353714, 0.06976323574781418, 0.16973060369491577, -0.021307194605469704, 0.1729992777109146, 0.009312939830124378, -0.009719958528876305, 0.13313935697078705], [0.040326811373233795, 0.16617606580257416, -0.2251518964767456, 0.08510153740644455, -0.02866966463625431, 0.10751528292894363, -0.010271581821143627, -0.07101622968912125, 0.07376287877559662, 0.06902618706226349, 0.08987988531589508, -0.11511362344026566, 0.06295959651470184, 0.0021044884342700243, 0.011309841647744179, -0.037853408604860306, 0.05361863970756531, -0.07711300253868103, 0.02473560906946659, 0.11818068474531174, 0.1866104155778885, 0.07024399936199188, 0.03747529909014702, -0.20848917961120605, 0.022107357159256935, -0.08153525739908218, -0.1203596219420433, 0.024500878527760506, 0.12564752995967865, -0.11009083688259125, 0.09741584211587906, -0.07512129098176956, -0.10085777193307877, -0.13171088695526123, 0.1911725550889969, -0.27113527059555054, -0.0053443824872374535, 0.08863011002540588, 0.01937921904027462, -0.029998766258358955, 0.1343936324119568, -0.11096733808517456, -0.0986873060464859, 0.06201218441128731, 0.07751347869634628, -0.01014514360576868, 0.0625884160399437, -0.1829814612865448, 0.04586096480488777, 0.1481127291917801, -0.050253912806510925, 0.05980705842375755], [0.04349767416715622, 0.15037932991981506, 0.10131605714559555, -0.021310776472091675, 0.11525023728609085, -0.010078107938170433, 0.1917710155248642, 0.11673401296138763, -0.04350373521447182, 0.07791564613580704, -0.13726140558719635, 0.29330557584762573, 0.07689410448074341, 0.050177741795778275, -0.008797889575362206, 0.02363126166164875, 0.05234852805733681, 0.17576906085014343, 0.03651899844408035, -0.04274822399020195, 0.08985775709152222, 0.041570454835891724, -0.08669385313987732, 0.079959437251091, 0.052829403430223465, 0.06590340286493301, 0.06346574425697327, 0.1386042982339859, 0.17004573345184326, 0.003471754025667906, 0.13514727354049683, -0.003730770666152239, 0.11240547150373459, -0.06265266984701157, 0.025133583694696426, 0.22611217200756073, 0.2029186636209488, -0.035705748945474625, 0.1052621528506279, 0.038075730204582214, 0.0017679730663076043, -0.009130948223173618, 0.09708099812269211, 0.1091238334774971, -0.08319330960512161, -0.13531287014484406, -0.017236610874533653, 0.08049015700817108, 0.0763964056968689, -0.03555868938565254, -0.006657591089606285, 0.014999235048890114], [0.04507310315966606, -0.11127957701683044, -0.1322268396615982, -0.037389565259218216, -0.025587307289242744, -0.09555298089981079, 0.07038428634405136, 0.041097547858953476, 0.12925401329994202, 0.08501497656106949, -0.004910277668386698, -0.0697331577539444, -0.06287261098623276, -0.02934042550623417, -0.062285635620355606, -0.10065264254808426, -0.11142352968454361, -0.008992747403681278, 0.08737124502658844, 0.025167103856801987, -0.07402681559324265, -0.013504255563020706, 2.2377949790097773e-05, 0.06334541738033295, -0.05695270001888275, 0.0447453111410141, 0.1223486065864563, -0.030082162469625473, 0.11382801830768585, -0.03710366040468216, 0.06294065713882446, 0.0008067461894825101, 0.042350124567747116, 0.05934586748480797, 0.09888426959514618, 0.1373249739408493, -0.08655809611082077, -0.022271957248449326, -0.11696070432662964, -0.1117045059800148, -0.004541358444839716, -0.06944800168275833, 0.12795032560825348, 0.09006030857563019, 0.05870291218161583, -0.12212491780519485, -0.09249372780323029, -0.030360989272594452, 0.020181840285658836, -0.05191071704030037, 0.03473397344350815, 0.04332742094993591], [0.15938527882099152, 0.015592311508953571, -0.1105961799621582, 0.25696632266044617, 0.09949392825365067, 0.001428284333087504, -0.050976887345314026, 0.0896700769662857, 0.14703616499900818, -0.08276357501745224, 0.21785925328731537, -0.30289584398269653, 0.12486345320940018, 0.21963712573051453, 0.12732253968715668, -0.06673476099967957, -0.02498847059905529, -0.05923216789960861, -0.020797353237867355, -0.011945369653403759, 0.0337890163064003, 0.04564999043941498, 0.14448213577270508, -0.07777626067399979, -0.04817911237478256, 0.11602583527565002, -0.0015373477945104241, 0.14496858417987823, -0.15552599728107452, -0.07044487446546555, -0.003456183709204197, -0.0584331639111042, -0.09543904662132263, -0.039015207439661026, 0.024107269942760468, 0.0007507646223530173, -0.1199430301785469, -0.03670391067862511, 0.06038045138120651, 0.011416018009185791, 0.009769424796104431, 0.0885038822889328, 0.12335558235645294, 0.14438225328922272, -0.08705224096775055, -0.052420616149902344, -0.01690244860947132, -0.05018012225627899, -0.09011854231357574, -0.061810631304979324, 0.09519802033901215, -0.07644643634557724], [0.11346026510000229, -0.018940865993499756, 0.09196153283119202, 0.03533177822828293, -0.03426866978406906, -0.07183148711919785, 0.15138685703277588, 0.08239733427762985, 0.07332383841276169, -0.034840699285268784, -0.09853724390268326, 0.060551442205905914, -0.06421037763357162, -0.13773824274539948, 0.09383279085159302, 0.07147259265184402, 0.0572807602584362, 0.14179065823554993, 0.02344958297908306, 0.08600258827209473, -0.10555285215377808, 0.07540614902973175, -0.017469527199864388, 0.0011913205962628126, 0.1387825608253479, 0.06607028841972351, 0.0686776414513588, 0.12662489712238312, -0.1063065305352211, 0.08162113279104233, 0.12341942638158798, 0.017383862286806107, 0.07588817179203033, -0.04361630603671074, -0.014401417225599289, 0.010320418514311314, 0.05485498905181885, -0.09752396494150162, 0.00025848837685771286, -0.09912139922380447, -0.0293398629873991, -0.01659218966960907, -0.1296912133693695, -0.12900252640247345, -0.04828714579343796, -0.10613416880369186, 0.11179866641759872, 0.04751791059970856, 0.08185743540525436, 0.1399276852607727, -0.006990987807512283, -0.07703178375959396], [0.009690911509096622, -0.09936338663101196, -0.016818851232528687, -0.05417203903198242, -0.007300758268684149, 0.03865721449255943, -0.02641179785132408, -0.1276692897081375, -0.08377008885145187, 0.11724981665611267, -0.02536134608089924, 0.011296816170215607, -0.02163764089345932, 0.08446812629699707, -0.006532017607241869, -0.13433720171451569, -0.125429168343544, 0.0061067319475114346, -0.12534961104393005, -0.11613573879003525, 0.04416627436876297, -0.050254177302122116, -0.09599309414625168, 0.05411037802696228, 0.10316336899995804, 0.04418034106492996, 0.13733170926570892, -0.13860557973384857, 0.03370015695691109, -0.042864296585321426, -0.04861452803015709, -0.09925221651792526, -0.06515900790691376, 0.1300451010465622, 0.034815676510334015, 0.03844713419675827, 0.13812899589538574, 0.054040417075157166, 0.012039586901664734, 0.09931439161300659, 0.06777314841747284, -0.02509431354701519, -0.12479206919670105, 0.11250927299261093, -0.006896401289850473, -0.08938755840063095, -0.016084082424640656, -0.13080573081970215, 0.05089997127652168, -0.08701873570680618, -0.0072252764366567135, -0.05753342807292938], [0.02396169677376747, -0.12225716561079025, -0.1151316836476326, -0.053786762058734894, 0.10838042944669724, 0.008233478292822838, -0.09407827258110046, 0.10506515204906464, 0.09933985024690628, 0.03955450281500816, 0.07042516767978668, -0.09945423901081085, -0.1323331892490387, -0.13530845940113068, -0.13300929963588715, -0.10871987789869308, 0.0953734964132309, 0.10264617204666138, 0.009469913318753242, -0.10657400637865067, 0.028431741520762444, 0.03856072574853897, 0.03169434145092964, 0.058258797973394394, 0.10897080600261688, -0.03604190796613693, -0.06147145479917526, 0.006334618199616671, 0.12623167037963867, -0.13785864412784576, -0.015708986669778824, -0.03585034981369972, 0.07189514487981796, -0.09249758720397949, -0.004338680766522884, -0.024855701252818108, -0.05422142520546913, 0.06735018640756607, 0.09267231822013855, -0.10285335779190063, -0.04439230635762215, -0.11489667743444443, -0.08625951409339905, 0.11467679589986801, -0.08513260632753372, -0.1072750836610794, -0.11213357746601105, -0.042809031903743744, 0.10945802927017212, 0.0639818087220192, 0.03892652690410614, 0.0729641392827034], [0.08828898519277573, -0.09208983182907104, 0.34105971455574036, -0.2185838371515274, 0.022426387295126915, -0.07383406162261963, -0.029200861230492592, 0.12034676223993301, 0.13345806300640106, 0.18162886798381805, -0.03739318624138832, 0.05568177253007889, -0.04026858136057854, -0.07754569500684738, 0.09156127274036407, 0.16140924394130707, 0.14435729384422302, 0.03303788602352142, -0.07670237869024277, -0.038963090628385544, -0.0555727481842041, -0.04709681123495102, 0.06659151613712311, 0.1922719031572342, 0.03991755470633507, 0.05482294037938118, 0.08611302077770233, 0.06622417271137238, 0.011615020222961903, 0.09611625224351883, 0.053317487239837646, -0.06521615386009216, 0.059572041034698486, 0.13265712559223175, -0.087376169860363, 0.13575945794582367, 0.03575877100229263, 0.025196993723511696, 0.12271377444267273, -0.009028592146933079, -0.10112208873033524, 0.1275872141122818, 0.11219529062509537, 0.05460254102945328, -0.13133437931537628, -0.1478227972984314, 0.05197246000170708, 0.006063391454517841, 0.0182670745998621, 0.027906963601708412, 0.05865678936243057, 0.02410508692264557], [-0.08721882104873657, 0.08531934767961502, 0.1701253205537796, 0.018769074231386185, 0.15044113993644714, -0.059566203504800797, 0.12798774242401123, -0.05883834511041641, 0.02917446568608284, -0.09593433886766434, 0.05702778697013855, 0.13748610019683838, -0.011927211657166481, -0.10463467985391617, 0.14775559306144714, -0.0808291882276535, 0.13990537822246552, 0.13627059757709503, 0.07658747583627701, 0.0774223580956459, 0.04288892820477486, 0.1049094870686531, -0.06233524903655052, -0.0327124185860157, -0.0414397157728672, 0.013267808593809605, 0.037667788565158844, 0.05317319184541702, -0.10206537693738937, 0.07029984146356583, 0.06363235414028168, -0.12638460099697113, 0.14114873111248016, 0.008048675023019314, -0.016571901738643646, -0.0035894194152206182, -0.04985284432768822, -0.1295996457338333, 0.12054333090782166, 0.13785620033740997, -0.037402667105197906, 0.02301664836704731, -0.06118476763367653, 0.10492423921823502, 0.10534408688545227, -0.14549483358860016, -0.1418154090642929, 0.04811102896928787, 0.044891200959682465, -0.018057355657219887, 0.10081208497285843, 0.013007836416363716], [0.13047267496585846, -0.09808432310819626, 0.3188539147377014, -0.14827942848205566, -0.02406410314142704, 0.012219822034239769, 0.04044429585337639, 0.06012078747153282, -0.05256655439734459, -0.05238296464085579, -0.07139789313077927, 0.13948825001716614, 0.18010447919368744, -0.1306184083223343, 0.17519813776016235, 0.017735084518790245, 0.17736010253429413, -0.054770369082689285, 0.004009269643574953, 0.08622677624225616, -0.09852836281061172, -0.004115717485547066, -0.06092346832156181, 0.23796714842319489, 0.06708012521266937, 0.15405809879302979, 0.1699248105287552, -0.0008250115206465125, 0.009153512306511402, 0.07358134537935257, 0.0368916355073452, -0.020859019830822945, 0.1429852396249771, 0.006888567935675383, 0.06534183770418167, 0.24658028781414032, 0.046470630913972855, -0.00321245938539505, 0.17261441051959991, 0.2098412960767746, 0.15128584206104279, -0.014771842397749424, -0.027437319979071617, 0.06809762120246887, -0.0687895193696022, 0.04221361130475998, 0.0010494237067177892, -0.05400313436985016, 0.060286011546850204, 0.1394929736852646, 0.030875105410814285, 0.08278053253889084], [0.018216269090771675, 0.15383872389793396, 0.17268234491348267, 0.06440546363592148, 0.17920933663845062, 0.06807643175125122, 0.12232004851102829, 0.15840815007686615, -0.04120015352964401, 0.06383340805768967, -0.07858482003211975, 0.27931368350982666, 0.10825463384389877, -0.05201950669288635, -0.09914430975914001, 0.10328322649002075, -0.0003637962508946657, 0.16264469921588898, 0.05498482286930084, 0.10303905606269836, 0.04731657728552818, 0.043544452637434006, 0.03373340517282486, 0.0785914734005928, 0.06384530663490295, -0.040382567793130875, -0.05894605815410614, 0.08060520142316818, 0.03681686520576477, 0.0048807100392878056, 0.11447279900312424, 0.1576804518699646, -0.00536007434129715, 0.15190385282039642, -0.031670521944761276, 0.15454941987991333, -0.06518189609050751, 0.16231398284435272, 0.18519040942192078, 0.020825617015361786, -0.09035328775644302, 9.84978541964665e-05, 0.15231630206108093, 0.1428002417087555, 0.07697799801826477, -0.07508604228496552, 0.06303173303604126, -0.08068016171455383, -0.04519479349255562, 0.1029798686504364, 0.142175555229187, -0.019732298329472542], [-0.12200569361448288, -0.07118194550275803, -0.127595454454422, -0.05996580421924591, -0.0010279668495059013, 0.10174251347780228, -0.0913509652018547, -0.12189489603042603, 0.00251301983371377, -0.09227674454450607, -0.07678267359733582, -0.12037353962659836, -0.10019449144601822, -0.0867132842540741, 0.06745655089616776, 0.07962239533662796, -0.076655313372612, -0.01514458004385233, -0.09842528402805328, 0.06599132716655731, -0.04499929025769234, -0.12400766462087631, -0.004219471476972103, -0.03737286105751991, -0.015975162386894226, -0.029840713366866112, 0.11374744027853012, -0.08705820888280869, 0.10619780421257019, -0.09404894709587097, 0.04295111075043678, 0.08018229901790619, -0.1213337853550911, -0.006674501113593578, 0.038749855011701584, 0.1239389181137085, -0.1341751366853714, 0.12707513570785522, 0.11800889670848846, -0.10494375973939896, 0.045840125530958176, 0.05685468018054962, -0.07864461094141006, 0.03792550414800644, 0.03751435503363609, -0.10374625027179718, 0.06602174788713455, -0.10122155398130417, 0.10716591775417328, -0.004102155100554228, 0.06353902816772461, 0.0614778958261013], [-0.002092869020998478, 0.018045421689748764, 0.25208234786987305, -0.10505197197198868, 0.1436578929424286, -0.0389869287610054, 0.15917277336120605, 0.052443500608205795, 0.10000187903642654, 0.03254247084259987, 0.04702727869153023, 0.09181790053844452, 0.15121547877788544, -0.09891615062952042, -0.053259871900081635, -0.05360335856676102, -0.015914544463157654, 0.05423839017748833, -0.10699061304330826, -0.08516785502433777, 0.05101655423641205, -0.11853931844234467, 0.03577917814254761, 0.20742926001548767, -0.07996201515197754, 0.08010208606719971, -0.03347805514931679, 0.13786783814430237, 0.13008420169353485, 0.08402974903583527, 0.1273983120918274, 0.13782981038093567, 0.1261122077703476, -0.042580194771289825, -0.1487964689731598, 0.18361632525920868, 0.11175604164600372, 0.012780841439962387, -0.029841221868991852, 0.06944485008716583, -0.04393985867500305, -0.07088681310415268, 4.820879257749766e-05, -0.023673653602600098, -0.10975654423236847, -0.020913701504468918, 0.07846023142337799, -0.100604347884655, -0.14339160919189453, -0.11924496293067932, 0.08438447117805481, 0.07534387707710266], [-0.0270353052765131, -0.06118175759911537, 0.29120421409606934, 0.05530023202300072, 0.12546522915363312, 0.07670941203832626, 0.18268068134784698, 0.057037871330976486, 0.12649554014205933, 0.10933242738246918, -0.005450453143566847, 0.2505321800708771, 0.09576868265867233, 0.09773709625005722, -0.08038994669914246, 0.10517103224992752, -0.03597234562039375, -0.00804026611149311, 0.10851458460092545, 0.028673605993390083, 0.09558002650737762, -0.01585874706506729, 0.08288661390542984, 0.2093028873205185, 0.20872806012630463, -0.06969363242387772, 0.14941348135471344, 0.15377411246299744, -0.04637695848941803, 0.02956457808613777, 0.09843651950359344, -0.027648037299513817, 0.13187403976917267, 0.15001711249351501, 0.008731517009437084, 0.006365329027175903, -0.0012417301768437028, -0.03096044808626175, 0.06368601322174072, 0.17833125591278076, 0.09978629648685455, -0.03091244399547577, 0.015018712729215622, 0.12183582037687302, 0.08461827784776688, 0.05080500990152359, 0.0983278825879097, 0.13006244599819183, 0.12072978168725967, 0.12161428481340408, 0.11737614125013351, 0.01663542352616787], [0.018560780212283134, 0.10116268694400787, 0.24055233597755432, 0.005983024835586548, 0.11734883487224579, 0.07372725009918213, 0.054014742374420166, -0.040862489491701126, -0.016421383246779442, -0.0334574431180954, -0.06307927519083023, 0.10849330574274063, 0.0926940068602562, 0.07228504866361618, -0.0033398661762475967, 0.15904600918293, 0.15165871381759644, 0.09847451001405716, 0.03178853169083595, 0.07135798037052155, -0.03736813738942146, 0.011453542858362198, 0.16448169946670532, 0.01922663301229477, 0.1443779319524765, 0.1669231355190277, 0.15918199717998505, 0.10479160398244858, 0.1787942498922348, 0.11827801913022995, 0.1184731274843216, 0.15599210560321808, 0.10069575905799866, 0.012281077913939953, 0.027151083573698997, 0.08123558759689331, 0.0049062869511544704, 0.07747209817171097, 0.10707183927297592, 0.009458405897021294, 0.025549117475748062, -0.0021300511434674263, -0.04552607238292694, 0.08256430923938751, 0.16903015971183777, -0.0032914765179157257, 0.14870361983776093, 0.15305158495903015, 0.025883309543132782, -0.056690413504838943, 0.15731707215309143, 0.1805916279554367], [0.03162757307291031, -0.014848611317574978, -0.042715828865766525, -0.08241327852010727, 0.02565363608300686, -0.11036718636751175, -0.05647297203540802, -0.12588968873023987, -0.10421183705329895, 0.003285689279437065, 0.00539246154949069, 0.006933249998837709, 0.012510498985648155, 0.03641979768872261, -0.044768478721380234, -0.06612057238817215, -0.054715510457754135, -0.01193262916058302, 0.07132265716791153, 0.02405543439090252, 0.04638858139514923, 0.1220802441239357, -0.12382534891366959, 0.04157346114516258, -0.09099168330430984, -0.05122043192386627, 0.11516916751861572, -0.08166655898094177, -0.11427430808544159, -0.03245772793889046, -0.0037754306104034185, 0.10566793382167816, -0.12328699976205826, 0.0016825612401589751, -0.07433726638555527, 0.09912432730197906, -0.027671469375491142, 0.028372250497341156, -0.08329803496599197, 0.0673753172159195, 0.11655613034963608, -0.0480666309595108, -0.13555584847927094, -0.05724282190203667, -0.082032710313797, -0.027406373992562294, 0.054554544389247894, 0.13846996426582336, 0.04193095117807388, -0.0006542613846249878, -0.0005822508246637881, -0.10333132743835449], [0.06611991673707962, 0.015068302862346172, 0.303226113319397, -0.138408824801445, 0.11286182701587677, 0.19843685626983643, 0.036582350730895996, 0.1313530057668686, 0.03582949936389923, 0.09799305349588394, 0.046253103762865067, 0.11041617393493652, 0.2399812787771225, 0.12470036745071411, 0.06135964393615723, 0.09774285554885864, 0.03939146548509598, 0.16591434180736542, 0.15423858165740967, 0.011762665584683418, 0.15901267528533936, 0.0005806438275612891, 0.07839688658714294, 0.0629446879029274, 0.14681802690029144, -0.1034109815955162, -0.055493637919425964, 0.03651682659983635, 0.22134336829185486, 0.1716129630804062, 0.03048982284963131, 0.1603836715221405, -0.03754504397511482, -0.07297484576702118, 0.11543875187635422, 0.0462116003036499, 0.1085907518863678, 0.03928198665380478, 0.02116505615413189, 0.08380497992038727, 0.004916006699204445, -0.04597960412502289, 0.18057440221309662, 0.00907063577324152, 0.03848952427506447, -0.04389117658138275, 0.14108237624168396, 0.08684516698122025, -0.05013280734419823, 0.02468849904835224, 0.1301504522562027, -0.05502937734127045], [-0.022712282836437225, 0.10937406867742538, 0.11440818756818771, -0.11229456961154938, -0.02800540067255497, 0.18069159984588623, 0.002343659056350589, 0.12237918376922607, 0.0640285387635231, 0.12101028114557266, -0.07846008241176605, 0.24552546441555023, 0.1956820785999298, -0.00861002504825592, 0.11469331383705139, 0.010331287980079651, 0.09091740846633911, -0.0197718758136034, 0.07247305661439896, 0.04456117004156113, 0.0921163484454155, 0.11986242234706879, 0.046606987714767456, 0.26695874333381653, 0.20513403415679932, 0.00019068631809204817, 0.20565441250801086, 0.19928665459156036, 0.006314883008599281, -0.021927030757069588, -0.02392001636326313, 0.167013481259346, 0.20213736593723297, 0.11553837358951569, 0.06668859720230103, 0.04475971683859825, -0.025424940511584282, 0.1255243718624115, 0.01977589912712574, 0.07303927093744278, 0.10912399739027023, 0.1274557262659073, 0.18745647370815277, -0.08394911140203476, -0.03900379687547684, -0.07535084336996078, 0.03999938443303108, 0.00407961243763566, -0.0938701406121254, 0.115244060754776, 0.09429062157869339, 0.13697242736816406], [-0.0764213427901268, 0.032894887030124664, 0.2816813886165619, 0.018019231036305428, 0.06546084582805634, 0.1654711812734604, -0.0764201357960701, -0.07088590413331985, 0.10582177340984344, 0.060116350650787354, -0.02608298882842064, 0.06868595629930496, 0.012272659689188004, -0.09318947792053223, 0.15022297203540802, 0.1890810877084732, -0.0036570404190570116, 0.056313153356313705, 0.06908624619245529, 0.07031553238630295, 0.14210817217826843, 0.0631774291396141, -0.08250970393419266, 0.027214493602514267, 0.12789449095726013, 0.07595496624708176, 0.1709807962179184, 0.1933237910270691, -0.00293029029853642, 0.04442892223596573, -0.00035178891266696155, -0.04680491238832474, 0.06869671493768692, 0.07832293212413788, -0.05629908666014671, 0.008756398223340511, 0.09599144011735916, 0.023553360253572464, 0.08710528910160065, -0.02171855792403221, -0.049491312354803085, -0.08503498882055283, 0.14051401615142822, -0.032192498445510864, -0.003408764721825719, -0.03173092007637024, -0.11916790157556534, 0.01667371764779091, -0.031355515122413635, 0.11568590998649597, 0.15400253236293793, -0.03920772299170494], [0.007385336793959141, -0.0936882346868515, 0.20787127315998077, 0.019596615806221962, -0.10644877701997757, 0.036249540746212006, -0.07506347447633743, 0.15224534273147583, -0.08992443233728409, 0.06926872581243515, 0.04436129704117775, 0.18332765996456146, 0.06834729015827179, -0.10015980899333954, -0.09964809566736221, 0.17932112514972687, -0.05044213682413101, 0.058200985193252563, 0.12845872342586517, 0.15399765968322754, 0.006783024407923222, 0.09216848015785217, 0.0019368239445611835, -0.004809127189218998, -0.01886274293065071, 0.05512448772788048, -0.032337822020053864, 0.11255648732185364, 0.04588199406862259, 0.05869997665286064, 0.020325953140854836, 0.00931895524263382, 0.13472990691661835, 0.10300156474113464, 0.022284815087914467, 0.07233600318431854, 0.1381634920835495, -0.0705309733748436, -0.012397054582834244, 0.011048135347664356, 0.09373147040605545, 0.10734831541776657, 0.12025703489780426, 0.09031594544649124, 0.0630512610077858, 0.022567998617887497, 0.08946256339550018, 0.13366301357746124, -0.013677693903446198, 0.07553447782993317, 0.05701344832777977, 0.04006592929363251], [0.11551269143819809, 0.016030089929699898, -0.21394376456737518, 0.23792797327041626, 0.05498635396361351, 0.04894522950053215, 0.18559983372688293, 0.10609029978513718, 0.11983499675989151, -0.009662591852247715, 0.3018196225166321, -0.2723681628704071, -0.019947431981563568, 0.054610829800367355, 0.13106948137283325, 0.02242898754775524, -0.04629357531666756, 0.019534308463335037, 0.11030731350183487, 0.11908227950334549, 0.013118176721036434, 0.002410996938124299, 0.10877085477113724, -0.21770749986171722, 0.07283218204975128, 0.2351265400648117, 0.14803126454353333, -0.06231928989291191, -0.050442781299352646, 0.03071378916501999, 0.06009530648589134, 0.09068889170885086, 0.004742146003991365, 0.029037291184067726, 0.004230713937431574, -0.15832850337028503, -0.036346275359392166, 0.1648138016462326, 0.019909625872969627, -0.13995803892612457, 0.02268342673778534, -0.07492581754922867, 0.11505494266748428, 0.056047502905130386, -0.09340866655111313, 0.017202861607074738, 0.08884988725185394, -0.11988433450460434, -0.021070415154099464, 0.01755906641483307, -0.11158549040555954, -0.07467776536941528], [-0.0035357738379389048, 0.10614869743585587, -0.0825856477022171, -0.09472646564245224, -0.12984026968479156, -0.1421211063861847, 0.0904352217912674, 0.10588199645280838, -0.04391170293092728, -0.13585415482521057, 0.09042460471391678, 0.11945635825395584, -0.08000747859477997, -0.07385823875665665, 0.014232887886464596, -0.103939488530159, -0.0427560955286026, -0.058629296720027924, 0.08394800871610641, 0.06966252624988556, -0.0736280232667923, 0.037733662873506546, 0.024749357253313065, 0.04491889476776123, -0.002237959997728467, 0.01246121246367693, 0.0987514853477478, 0.1262940764427185, -0.08886566758155823, 0.010029317811131477, -0.10602926462888718, 0.11592679470777512, -0.10516609251499176, 0.12432854622602463, 0.07259278744459152, -0.1222594752907753, -0.06256676465272903, -0.10331898182630539, 0.02779705636203289, -0.11816184967756271, -0.12991182506084442, 0.08971168845891953, 0.09298783540725708, -0.08733894675970078, 0.13465037941932678, -0.06258833408355713, -0.0514637753367424, 0.106541708111763, -0.13097773492336273, -0.013845160603523254, 0.12737181782722473, -0.06092183664441109], [-0.02022353559732437, -0.07129590213298798, 0.32832080125808716, -0.16833819448947906, -0.031255632638931274, 0.03655090928077698, 0.04403170943260193, 0.06752859801054001, -0.07702883332967758, -0.08482777327299118, -0.12161170691251755, 0.23267339169979095, 0.13037246465682983, -0.11881128698587418, 0.032824642956256866, 0.013670681044459343, 0.11049395799636841, 0.1049855425953865, 0.059559840708971024, -0.022332368418574333, 0.08416789770126343, -0.03682814911007881, 0.054136261343955994, 0.15094754099845886, 0.14320582151412964, -0.12910091876983643, 0.14345501363277435, -0.05723074451088905, -0.04133857786655426, 0.007624179124832153, 0.021114446222782135, 0.074738048017025, 0.04395206272602081, 0.01991085894405842, -0.04022315889596939, -0.012949388474225998, -0.06315384060144424, 0.09648028016090393, 0.17224913835525513, -0.043737880885601044, -0.08676272630691528, -0.08744590729475021, -0.0984291359782219, 0.06938381493091583, -0.03877061977982521, -0.04797867313027382, -0.12833215296268463, 0.11026288568973541, -0.05484092980623245, 0.012087306007742882, 0.0929470956325531, -0.008718504570424557], [-0.044308196753263474, 0.038605693727731705, 0.055671170353889465, -0.11290709674358368, 0.01745414175093174, -0.07363267987966537, 0.11420232802629471, 0.08099411427974701, 0.02973092533648014, 0.07679633796215057, -0.01939953863620758, 0.07393233478069305, 0.0834633857011795, 0.062238581478595734, -0.047542158514261246, 0.15525537729263306, -0.05625023692846298, -0.0029017727356404066, 0.13786552846431732, 0.048399075865745544, 0.013187923468649387, -0.06746578961610794, -0.04990058019757271, 0.040783435106277466, 0.10274510830640793, -0.055996328592300415, 0.07894726097583771, 0.11454230546951294, -0.0839017704129219, -0.06002199277281761, 0.14425881206989288, 0.016715340316295624, -0.0026881969533860683, -0.011020302772521973, -0.13468196988105774, 0.19290880858898163, 0.18246833980083466, 0.062474872916936874, -0.01734931580722332, 0.0642734169960022, 0.11131507903337479, -0.053628504276275635, 0.12398169934749603, -0.031362276524305344, 0.013116737827658653, -0.13229981064796448, 0.14119838178157806, 0.0008042423287406564, 0.13616926968097687, 0.14885246753692627, -0.0048408228904008865, -0.0580219104886055], [0.11950404196977615, 0.17490306496620178, 0.35505545139312744, -0.18155421316623688, 0.049297597259283066, 0.03295082226395607, -0.058947574347257614, -0.015375588089227676, 0.20495600998401642, 0.0077378335408866405, -0.13122770190238953, 0.11745435744524002, 0.022155053913593292, -0.012223397381603718, 0.06777871400117874, 0.08233435451984406, 0.1705959141254425, 0.01654188148677349, 0.0988563671708107, 0.19165003299713135, 0.07962616533041, 0.14870691299438477, 0.07211890816688538, 0.10201842337846756, 0.08732395619153976, -0.012290900573134422, 0.15845490992069244, -0.014551202766597271, 0.0989525318145752, -0.041005365550518036, 0.19238731265068054, -0.031552013009786606, -0.06138218194246292, 0.16292031109333038, 0.01553647592663765, 0.08551205694675446, -0.0034009043592959642, -0.02293894812464714, 0.03166922926902771, 0.05451328679919243, -0.03515546768903732, -0.020542819052934647, 0.06266329437494278, 0.12656663358211517, 0.08191490173339844, 0.032597776502370834, -0.009595169685781002, 0.0894840657711029, 0.025938812643289566, 0.034220751374959946, -0.02932923659682274, 0.1579277366399765], [0.13166269659996033, 0.18817682564258575, 0.25690948963165283, 0.09863529354333878, 0.11927425861358643, 0.14287857711315155, -0.01645262911915779, 0.10149247944355011, -0.020609362050890923, 0.09770254790782928, 0.11163081973791122, 0.3159678280353546, -0.01739771105349064, -0.037479810416698456, -0.014564952813088894, -0.0037269580643624067, 0.10514859855175018, 0.17574739456176758, 0.1085510104894638, -0.017746448516845703, -0.042159780859947205, -0.011722005903720856, 0.15034355223178864, 0.1290140002965927, 0.22183386981487274, -0.037058670073747635, 0.16434043645858765, -0.025735436007380486, 0.012801013886928558, 0.04074862599372864, 0.18465059995651245, 0.1454450637102127, 0.18628063797950745, 0.14497937262058258, 0.04501749575138092, 0.08538234233856201, 0.09436395019292831, 0.0022830297239124775, 0.18959324061870575, 0.10861397534608841, 0.17256402969360352, 0.15406912565231323, 0.08585134148597717, 0.0649423748254776, -0.0726674497127533, -0.10209531337022781, -0.05663396418094635, 0.04130983725190163, 0.005152094177901745, 0.023782845586538315, 0.1425144374370575, 0.12789538502693176], [0.18903663754463196, -0.0558088943362236, 0.1606040745973587, -0.0014793934533372521, 0.17743134498596191, -0.05103449523448944, -0.0327993780374527, 0.1550617665052414, 0.17279009521007538, 0.13469524681568146, 0.08114022761583328, 0.30279573798179626, -0.010370013304054737, -0.04667035862803459, 0.014416879042983055, 0.09218858182430267, 0.0701102688908577, 0.11625771224498749, 0.01048970315605402, 0.1536812037229538, -0.023660600185394287, 0.21003487706184387, 0.10812006145715714, 0.24937814474105835, 0.0208449549973011, -0.039270639419555664, 0.007239909842610359, 0.21330884099006653, 0.044984862208366394, -0.03977050259709358, -0.0075972601771354675, 0.1509762853384018, 0.004518461879342794, 0.04827098920941353, 0.10750266164541245, 0.08897005766630173, 0.01736914925277233, -0.027034079656004906, 0.15129241347312927, 0.15381157398223877, 0.10741445422172546, -0.04403731971979141, -0.006009418051689863, 0.1777547001838684, 0.17892546951770782, 0.03683473542332649, 0.09667178243398666, 0.18756023049354553, 0.1777900606393814, -0.0628945454955101, 0.14486442506313324, 0.010619563050568104], [0.1052236557006836, -0.035231053829193115, 0.11057700216770172, 0.017027119174599648, -0.021415352821350098, 0.10856369137763977, 0.01654590293765068, 0.08089995384216309, 0.17138387262821198, 0.19627580046653748, -0.1972367763519287, 0.2195136547088623, 0.03062669187784195, -0.12956957519054413, 0.14620280265808105, 0.05369456484913826, -0.017571141943335533, 0.12347700446844101, -0.11947289854288101, 0.06311853975057602, 0.04216855764389038, 0.07155497372150421, -0.11519782245159149, 0.03577166795730591, 0.04469505324959755, -0.07653506845235825, 0.1560644805431366, 0.17580319941043854, -0.029177509248256683, 0.10093507915735245, 0.04184446856379509, 0.09143658727407455, 0.032535623759031296, 0.10327184200286865, 0.055592119693756104, 0.07484380155801773, 0.00757222343236208, 0.1548202484846115, -0.05936897546052933, 0.1411285698413849, -0.1281341016292572, -0.07256241142749786, -0.08280206471681595, -0.05405434966087341, 0.07274655997753143, 0.07907389849424362, -0.05789538472890854, 0.06870463490486145, -0.08073864132165909, 0.09230911731719971, 0.1372433751821518, -0.0675523430109024], [0.12290192395448685, 0.10124421864748001, 0.07673479616641998, -0.13246774673461914, 0.0037815840914845467, -0.022247150540351868, 0.04981594905257225, -0.040727514773607254, 0.08655501157045364, 0.020785698667168617, -0.0006635090103372931, 0.17732425034046173, -0.08272765576839447, 0.11163728684186935, -0.09234826266765594, 0.04052327945828438, -0.05538635328412056, 0.1097952127456665, -0.05996771529316902, -0.06940320134162903, 0.12673352658748627, 0.1315346360206604, 0.016043249517679214, 0.17475850880146027, 0.014156049117445946, 0.08963421732187271, 0.07823453098535538, 0.02182520367205143, 0.12705466151237488, 0.06213569641113281, -0.12386003136634827, 0.058268867433071136, 0.011308960616588593, -0.07980574667453766, -0.07060737907886505, 0.143036887049675, 0.09952167421579361, -0.08816509693861008, -0.02819552831351757, -0.0599396787583828, -0.025201361626386642, 0.0009485747432336211, 0.024850379675626755, 0.053296998143196106, 0.10932829231023788, 0.014478488825261593, -0.14546151459217072, -0.050832465291023254, -0.11266300827264786, -0.05839233100414276, 0.04287837818264961, -0.04327211156487465], [-0.010611023753881454, 0.10565752536058426, 0.10514651238918304, 0.018727248534560204, 0.06594830751419067, -0.0129768755286932, 0.2150467038154602, 0.053968172520399094, -0.027530761435627937, 0.10450755804777145, 0.07603085786104202, 0.3114735782146454, -0.021837785840034485, 0.00038885779213160276, 0.06473159044981003, 0.21908050775527954, 0.08440300822257996, 0.13411930203437805, 0.02096443623304367, 0.06072993949055672, 0.17430350184440613, 0.055819351226091385, -0.07897958159446716, 0.20713163912296295, 0.22400525212287903, 0.1081826463341713, 0.19661585986614227, -0.03618349879980087, -0.03530431166291237, 0.02722189389169216, 0.009249734692275524, 0.07452107220888138, 0.1114402636885643, 0.1292477548122406, 0.1074344739317894, 0.239179790019989, 0.1256345957517624, 0.0797918513417244, -0.02303612418472767, 0.177008718252182, -0.0691046193242073, 0.1019989624619484, 0.04517950117588043, 0.18706534802913666, 0.04695172235369682, 0.025246821343898773, 0.09516820311546326, 0.07246185094118118, 0.02319779247045517, -0.016308128833770752, 0.13344435393810272, 0.1320476084947586], [0.1010534018278122, -0.09968456625938416, 0.3042772710323334, -0.06809673458337784, -0.03222537413239479, 0.04819149896502495, 0.04288612678647041, 0.05611386522650719, -0.03863883391022682, 0.1908321976661682, -0.07390090078115463, 0.14523330330848694, 0.1668313890695572, 0.05416332185268402, 0.09537846595048904, 0.20776207745075226, -0.07380332052707672, 0.1603250503540039, 0.07426493614912033, -0.020196136087179184, 0.11277764290571213, 0.12333661317825317, 0.07497851550579071, 0.282317191362381, -0.01696605421602726, 0.02532992511987686, 0.18031692504882812, 0.12092265486717224, 0.15222257375717163, 0.043012119829654694, 0.04689338803291321, -0.07346168905496597, 0.1349412500858307, 0.1471027135848999, 0.11577826738357544, 0.1217227429151535, -0.00948768388479948, 0.14229336380958557, 0.008020383305847645, 0.21745149791240692, 0.0075246128253638744, 0.13591673970222473, 0.11283093690872192, -0.05503974109888077, 0.0876857116818428, -0.10700717568397522, 0.06229215860366821, -0.020012451335787773, -0.09361445903778076, 0.1209091991186142, 0.10172182321548462, 0.040905389934778214], [-0.030467065051198006, -0.047097377479076385, 0.290379136800766, -0.04502303898334503, -0.09402459859848022, 0.07872967422008514, 0.06362935900688171, 0.08787932246923447, -0.04449934884905815, 0.050062984228134155, -0.0760926604270935, 0.15279512107372284, 0.008320767432451248, 0.09601102769374847, 0.009684151969850063, -0.024535953998565674, 0.034049734473228455, 0.03728329762816429, 0.040445152670145035, -0.0400230772793293, -0.003144184360280633, -0.06281205266714096, -0.09164207428693771, 0.07146300375461578, 0.053915251046419144, -0.0005069462349638343, -0.007118591573089361, -0.027230482548475266, 0.1559363603591919, 0.02248518168926239, 0.14288069307804108, 0.02439490146934986, -0.05437245965003967, 0.006939381826668978, 0.054167740046978, 0.042497098445892334, 0.17013554275035858, -0.10121974349021912, -0.04605012759566307, -0.07447865605354309, -0.10225147008895874, 0.015947187319397926, -0.08246292918920517, -0.09477119892835617, -0.013987023383378983, -0.07978067547082901, -0.0884772315621376, -0.018511487171053886, -0.02854294888675213, 0.1087261438369751, 0.15910717844963074, 0.10835731774568558], [0.10422787070274353, 0.03055413067340851, 0.2747270464897156, -0.09107816964387894, 0.1105254516005516, -0.024455606937408447, 0.14576847851276398, 0.077598936855793, 0.13909581303596497, 0.001919817877933383, 0.06344713270664215, 0.07941878587007523, 0.2400284707546234, -0.08313139528036118, 0.16559387743473053, 0.006029045674949884, 0.025545381009578705, 0.035502951592206955, 0.1190197542309761, -0.07264567911624908, -0.09362349659204483, -0.061828576028347015, -0.007844485342502594, 0.2735307216644287, 0.1982676386833191, 0.10662303864955902, 0.09228315949440002, 0.08725254982709885, 0.055290427058935165, -0.04567520692944527, 0.14969389140605927, 0.009523939341306686, 0.042205702513456345, 0.019053202122449875, 0.07273783534765244, 0.11607985198497772, 0.04281211271882057, 0.09227024763822556, 0.23043154180049896, -0.0075012617744505405, 0.18037723004817963, 0.13661709427833557, 0.16304415464401245, 0.05686308816075325, 0.054272063076496124, 0.08824355155229568, 0.0777272880077362, 0.04770012944936752, -0.060278844088315964, -0.0410785935819149, 0.09739796072244644, 0.0972810611128807], [0.0014434718759730458, 0.05128831788897514, 0.14300255477428436, -0.1545846313238144, 0.07817575335502625, 0.14912301301956177, 0.178973987698555, -0.05114160105586052, 0.10568331927061081, 0.09850028157234192, 0.0320444256067276, 0.13738907873630524, 0.03233128786087036, 0.07315796613693237, 0.10335510224103928, 0.1756959706544876, 0.0017724239733070135, 0.07194925099611282, -0.07062182575464249, 0.17472010850906372, 0.14937078952789307, -0.02134852483868599, 0.027707379311323166, 0.036986060440540314, 0.11741094291210175, -0.08876734972000122, -0.05780243128538132, 0.03663303330540657, -0.0441824272274971, 0.06957744807004929, 0.07327020168304443, -0.01520495768636465, -0.07595206797122955, 0.10191308706998825, 0.023954644799232483, 0.08437182754278183, 0.16985078155994415, 0.12622345983982086, 0.16856980323791504, 0.1709275245666504, 0.007600742857903242, 0.03401742875576019, 0.05373912304639816, -0.0389508493244648, 0.12602314352989197, 0.018572771921753883, 0.07426135987043381, 0.042796120047569275, 0.15781477093696594, 0.0852474644780159, -0.01263619028031826, 0.14321987330913544], [0.07338540256023407, 0.050300758332014084, 0.16235549747943878, 0.03672175109386444, -0.0011778314365074039, 0.1398123949766159, 0.09520086646080017, -0.04316980764269829, 0.13108892738819122, 0.14029021561145782, -0.16021111607551575, 0.1645478457212448, 0.010379006154835224, 0.07343189418315887, 0.043359484523534775, -0.03434562683105469, 0.07679379731416702, -0.008257466368377209, -0.07293197512626648, -0.06424359977245331, -0.10870110243558884, -0.07333070784807205, -0.12432168424129486, 0.18704967200756073, 0.0771787166595459, -0.06313640624284744, 0.04596128687262535, -0.08491184562444687, 0.17076900601387024, 0.027181940153241158, 0.11932946741580963, -0.045357294380664825, 0.05840233340859413, 0.12907801568508148, -0.14345327019691467, -0.028658831492066383, 0.10049556940793991, 0.055854134261608124, 0.175528883934021, -0.05867593362927437, 0.07667674124240875, 0.017668480053544044, 0.13813188672065735, 0.07068244367837906, -0.024930430576205254, 0.014401649124920368, 0.09294011443853378, 0.10178130120038986, 0.07015478610992432, 0.060930103063583374, 0.04840300977230072, 0.017191682010889053], [0.09294888377189636, -0.08415871858596802, 0.10620691627264023, -0.10316471755504608, 0.1268070489168167, 0.20212627947330475, 0.16737216711044312, 0.08426533639431, 0.10748713463544846, 0.1060335785150528, 0.003224270883947611, 0.3152918815612793, 0.13748799264431, 0.10217416286468506, 0.053850628435611725, 0.07281481474637985, -0.02702845074236393, -0.03012588433921337, 0.03328314796090126, -0.02947095036506653, 0.08416921645402908, -0.007467184215784073, -0.03327109292149544, 0.27090737223625183, 0.15827886760234833, 0.15483127534389496, 0.07490692287683487, 0.13388794660568237, 0.14541582763195038, 0.08850643783807755, 0.0703931599855423, -0.020925508812069893, 0.12112590670585632, -0.0836370661854744, 0.08440949022769928, 0.16547368466854095, 0.19216834008693695, 0.020399559289216995, 0.19660373032093048, 0.18927480280399323, 0.05860432982444763, 0.05728383734822273, 0.08616220206022263, 0.07144007086753845, -0.02341618202626705, -0.08387748897075653, -0.03631992265582085, -0.049060892313718796, 0.0801214948296547, -0.048124343156814575, -0.043878693133592606, -0.010445556603372097], [0.01403794065117836, 0.08759687095880508, 0.2611442506313324, -0.12137647718191147, 0.18153299391269684, -0.09393100440502167, 0.14152510464191437, -0.04310372471809387, -0.08127635717391968, -0.05437101423740387, -0.07848010957241058, 0.2745031714439392, -0.025090191513299942, 0.02842072956264019, 0.0394812673330307, -0.004878530278801918, -0.03680498152971268, 0.11132138222455978, 0.14032460749149323, 0.019809573888778687, 0.12394250184297562, 0.16054514050483704, 0.13060715794563293, 0.1804361343383789, 0.18079079687595367, 0.09409791976213455, 0.04217671602964401, -0.07709702849388123, 0.05732021853327751, -0.103816457092762, 0.04070190712809563, 0.1040525883436203, -0.05088011547923088, 0.08953630179166794, 0.10624769330024719, 0.19528385996818542, 0.1914709210395813, -0.038627322763204575, 0.01995311677455902, 0.1023697555065155, 0.043746866285800934, -0.04438798129558563, -0.021981393918395042, 0.1238657608628273, -0.05473617836833, 0.08456093072891235, -0.035945918411016464, 0.04226470738649368, -0.05618271231651306, 0.11841845512390137, 0.11515317112207413, 0.05971423536539078], [0.16870607435703278, 0.10937589406967163, 0.2552211582660675, -0.18259167671203613, -0.004896489903330803, -0.016395719721913338, 0.15987524390220642, 0.023327168077230453, 0.14447422325611115, 0.020833924412727356, -0.04940517246723175, 0.15947672724723816, 0.2160019427537918, -0.07455366849899292, 0.09617158025503159, 0.18763995170593262, 0.0008672670228406787, 0.006607966497540474, 0.16604551672935486, 0.08195964246988297, -0.09466712176799774, -0.08002807199954987, 0.12528494000434875, 0.020940208807587624, -0.004343291744589806, -0.04036758840084076, 0.1903574913740158, 0.00021637979079969227, 0.15602649748325348, 0.07029252499341965, 0.027369052171707153, 0.013776328414678574, -0.07791886478662491, -0.0069574578665196896, 0.10461215674877167, 0.18481691181659698, -0.007145492825657129, 0.08683572709560394, -0.05102230980992317, 0.18773917853832245, -0.009589730761945248, 0.06352700293064117, -0.08344064652919769, 0.12224294245243073, 0.14479652047157288, 0.021902061998844147, 0.14024126529693604, -0.05316338688135147, 0.0015736620407551527, -0.048187680542469025, 0.1080799475312233, 0.13966801762580872], [-0.09777909517288208, -0.05745339021086693, 0.26652517914772034, 0.035419441759586334, 0.029365558177232742, 0.11674532294273376, -0.07820681482553482, 0.13933579623699188, 0.08447236567735672, -0.006035440601408482, 0.00899952370673418, -0.007209512405097485, 0.16085104644298553, 0.09080822765827179, 0.06769010424613953, 0.06469078361988068, 0.14105841517448425, 0.02772083319723606, 0.04492645710706711, -0.0038352319970726967, -0.1304675042629242, 0.1130003035068512, -0.055041875690221786, 0.010226787999272346, -0.022659622132778168, -0.00721434410661459, 0.004540569614619017, 0.04038271680474281, 0.04526690021157265, 0.15604573488235474, -0.09287385642528534, -0.07147049158811569, -0.07798346877098083, 0.10284050554037094, 0.013870765455067158, -0.030324870720505714, 0.09656542539596558, 0.047076158225536346, 0.036210037767887115, 0.1671658754348755, -0.11014198511838913, 0.009747006930410862, 0.09914679080247879, 0.13123612105846405, -0.03517581894993782, -0.009025144390761852, -0.006125306710600853, -0.06243760883808136, 0.04087147116661072, 0.11847730726003647, 0.11552536487579346, 0.024853358045220375], [-0.014224857091903687, -0.09415313601493835, 0.007242969237267971, -0.09519749134778976, 0.08649889379739761, -0.030417848378419876, -0.10453338921070099, 0.048658691346645355, -0.1493326723575592, 0.048156462609767914, -0.14431221783161163, -0.10603338479995728, -0.09541995078325272, 0.11339355260133743, -0.11159148812294006, 0.04235352575778961, -0.030057882890105247, 0.052568405866622925, -0.10025834292173386, -0.11392305046319962, -0.09565822035074234, -0.021928507834672928, -0.0681668147444725, -0.1521621197462082, 0.09854961931705475, -0.1336951106786728, -0.0869148001074791, -0.030082091689109802, 0.06691794097423553, 0.009636527858674526, 0.041702933609485626, -0.05196988210082054, 0.03409358114004135, 0.04329486936330795, 0.0031678318046033382, -0.06674513220787048, -0.053519174456596375, 0.09271011501550674, -0.13184234499931335, 0.12083541601896286, -0.11477979272603989, -0.06555324792861938, 0.0790364071726799, 0.11499499529600143, 0.06162400543689728, 0.09489051252603531, 0.0016411420656368136, -0.04106039181351662, 0.08379529416561127, -0.05107446014881134, 0.03337817266583443, -0.06985720992088318], [0.12609781324863434, -0.061467695981264114, 0.201802060008049, 0.07346200197935104, 0.21153634786605835, 0.027282310649752617, -0.05342791602015495, 0.02009812369942665, -0.015934033319354057, -0.014001622796058655, -0.010030773468315601, 0.14998728036880493, 0.10757087916135788, 0.09758930653333664, 0.1523560881614685, 0.08742190152406693, 0.15915271639823914, 0.028218744322657585, 0.15379081666469574, 0.04797838255763054, 0.02725173905491829, -0.04623524472117424, 0.10594728589057922, 0.0782516598701477, 0.12536747753620148, -0.04500410705804825, -0.04641363397240639, 0.20757025480270386, -0.0036615380086004734, -0.03935065492987633, 0.05115911737084389, 0.1267530769109726, 0.11694949120283127, 0.12069828063249588, -0.028300082311034203, 0.05578681826591492, -0.045641928911209106, -0.06762692332267761, 0.07449042797088623, 0.12370368838310242, 0.17324571311473846, -0.10143376886844635, -0.007668827194720507, 0.1580532342195511, 0.03349720314145088, 0.017171015962958336, 0.014408138580620289, 0.17868591845035553, -0.0859074518084526, -0.06520085036754608, 0.10961619019508362, 0.03736555203795433], [0.20213709771633148, 0.1094052791595459, 0.17489932477474213, 0.11082635819911957, 0.0497964546084404, 0.06900092959403992, -0.00874475296586752, 0.14704017341136932, -0.013195596635341644, 0.03148239105939865, 0.07895106077194214, 0.11557105928659439, -0.016192074865102768, -0.08051618933677673, 0.025990409776568413, 0.037147507071495056, 0.07475810497999191, 0.15291400253772736, 0.01744590699672699, -0.05232017859816551, 0.16175058484077454, -0.022783510386943817, 0.11821965873241425, 0.2956044673919678, 0.17887353897094727, -0.08097275346517563, 0.041228849440813065, 0.19618669152259827, -0.038315966725349426, 0.1535913646221161, 0.04779655486345291, 0.11099144071340561, 0.024707384407520294, 0.16106733679771423, -0.021453160792589188, 0.20421230792999268, -0.008199892938137054, -0.0699942409992218, 0.06816083192825317, 0.21563421189785004, 0.10365240275859833, -0.039827294647693634, 0.0033784364350140095, 0.08353504538536072, 0.09406451880931854, -0.1322997659444809, -0.045607224106788635, 0.23146946728229523, 0.11507582664489746, 0.04999985918402672, -0.0028459036257117987, 0.07477141916751862], [0.1172359436750412, 0.10806248337030411, 0.2108667939901352, -0.10622843354940414, 0.1550167351961136, -0.007799387909471989, 0.06512382626533508, 0.08533462882041931, 0.16060002148151398, 0.23817215859889984, -0.11788289994001389, 0.20592662692070007, 0.0006453436799347401, -0.03540597856044769, -0.003450398799031973, -0.022089436650276184, -0.010212231427431107, 0.17838917672634125, 0.06500554084777832, 0.17612576484680176, -0.041823551058769226, 0.0891895741224289, 0.026117635890841484, 0.10779218375682831, 0.24537166953086853, -0.07008764147758484, 0.1987466663122177, 0.16617202758789062, 0.23892641067504883, 0.12359921634197235, 0.039808519184589386, -0.058911748230457306, -0.001693393336609006, 0.18168579041957855, 0.10198095440864563, 0.2208816111087799, 0.1316477358341217, 0.024829087778925896, 0.12273155897855759, 0.04998746141791344, 0.10294758528470993, 0.03775043413043022, 0.14100965857505798, 0.023875122889876366, -0.07382552325725555, -0.09686422348022461, -0.07580575346946716, 0.2113812118768692, -0.061526499688625336, -0.025228403508663177, -0.022355791181325912, 0.16414384543895721], [-0.11236029118299484, -0.05877077206969261, -0.24248938262462616, 0.11200867593288422, 0.15687109529972076, -0.008979770354926586, -0.0396176315844059, 0.007195468060672283, -0.04264514148235321, 0.0904003456234932, 0.10894929617643356, -0.216602623462677, -0.14228571951389313, -0.029647087678313255, 0.06150791421532631, 0.12822122871875763, -0.06612519919872284, 0.15538860857486725, -0.030272668227553368, 0.07483620941638947, 0.12500856816768646, -0.04294412583112717, 0.1169668436050415, -0.15405990183353424, 0.10738411545753479, 0.18626485764980316, 0.10904122143983841, -0.03413292393088341, -0.1424684226512909, -0.1301121711730957, -0.09498168528079987, 0.13920199871063232, 0.01072821207344532, 0.04611435532569885, 0.020789995789527893, -0.10232138633728027, -0.09947925806045532, -0.01339820958673954, 0.07818605750799179, -0.00938165932893753, -0.024443773552775383, -0.10608794540166855, -0.09978341311216354, 0.03674368932843208, -0.10390092432498932, 0.13806548714637756, 0.1278669238090515, 0.04466129466891289, 0.004511320032179356, -0.05497351288795471, -0.04814097657799721, 0.004516008775681257], [-0.037884801626205444, -0.05914895609021187, 0.17270147800445557, -0.10357539355754852, 0.02065780572593212, 0.14517608284950256, 0.1928330659866333, 0.013586786575615406, -0.05874015763401985, 0.16683444380760193, -0.09379886835813522, 0.2416525036096573, -0.013422301970422268, -0.13504475355148315, 0.055492740124464035, 0.17172548174858093, 0.04850764200091362, 0.08393136411905289, 